<?xml version="1.0"?>
<opencv_storage>
<opencv_ml_svm>
  <format>3</format>
  <svmType>C_SVC</svmType>
  <kernel>
    <type>RBF</type>
    <gamma>5.0625000000000009e-01</gamma></kernel>
  <C>3.1250000000000000e+02</C>
  <term_criteria><epsilon>1.1920928955078125e-07</epsilon>
    <iterations>1000</iterations></term_criteria>
  <var_count>1000</var_count>
  <class_count>4</class_count>
  <class_labels type_id="opencv-matrix">
    <rows>4</rows>
    <cols>1</cols>
    <dt>i</dt>
    <data>
      0 1 2 3</data></class_labels>
  <sv_total>408</sv_total>
  <support_vectors>
    <_>
      1.64473685e-03 3.28947371e-03 1.64473685e-03 1.64473685e-03
      1.64473685e-03 0. 0. 0. 1.64473685e-03 1.64473685e-03
      1.64473685e-03 0. 9.86842066e-03 0. 0. 0. 1.64473685e-03
      1.64473685e-03 3.28947371e-03 1.64473685e-03 0. 1.64473685e-03 0.
      4.93421033e-03 1.64473685e-03 4.93421033e-03 3.28947371e-03
      3.28947371e-03 0. 1.64473685e-03 0. 1.64473685e-03 1.64473685e-03
      0. 1.64473685e-03 3.28947371e-03 1.64473685e-03 1.64473685e-03
      1.64473685e-03 1.64473685e-03 1.64473685e-03 1.64473685e-03
      1.64473685e-03 0. 1.64473685e-03 3.28947371e-03 9.86842066e-03 0.
      1.64473685e-03 1.64473685e-03 1.64473685e-03 3.28947371e-03
      1.64473685e-03 0. 0. 1.64473685e-03 0. 1.64473685e-03
      1.64473685e-03 1.64473685e-03 1.64473685e-03 1.64473685e-03
      1.64473685e-03 1.64473685e-03 0. 1.64473685e-03 0. 0. 0.
      1.64473685e-03 1.64473685e-03 0. 1.64473685e-03 8.22368450e-03 0.
      1.64473685e-03 4.93421033e-03 0. 1.64473685e-03 4.93421033e-03
      1.64473685e-03 0. 1.64473685e-03 3.28947371e-03 1.64473685e-03
      1.64473685e-03 1.64473685e-03 0. 0. 1.64473685e-03 4.93421033e-03
      0. 1.64473685e-03 0. 1.64473685e-03 0. 1.64473685e-03
      1.64473685e-03 0. 1.64473685e-03 0. 1.64473685e-03 0. 0.
      1.64473685e-03 0. 1.64473685e-03 1.64473685e-03 1.64473685e-03
      1.64473685e-03 1.64473685e-03 0. 3.28947371e-03 1.64473685e-03
      4.93421033e-03 1.64473685e-03 1.64473685e-03 1.64473685e-03 0.
      1.64473685e-03 1.64473685e-03 1.64473685e-03 1.64473685e-03 0. 0.
      1.64473685e-03 1.64473685e-03 1.64473685e-03 3.28947371e-03 0.
      3.28947371e-03 1.64473685e-03 1.64473685e-03 1.64473685e-03
      3.28947371e-03 1.64473685e-03 0. 1.64473685e-03 1.64473685e-03
      1.64473685e-03 1.64473685e-03 1.64473685e-03 0. 1.64473685e-03 0.
      3.28947371e-03 0. 4.93421033e-03 0. 1.64473685e-03 3.28947371e-03
      0. 0. 3.28947371e-03 4.93421033e-03 1.64473685e-03 0.
      1.64473685e-03 3.28947371e-03 1.64473685e-03 1.64473685e-03
      3.28947371e-03 0. 0. 3.28947371e-03 1.64473685e-03 0. 0.
      1.64473685e-03 1.64473685e-03 0. 1.64473685e-03 1.64473685e-03
      1.64473685e-03 1.64473685e-03 0. 1.64473685e-03 1.64473685e-03 0.
      0. 1.64473685e-03 1.64473685e-03 0. 0. 0. 1.64473685e-03
      1.64473685e-03 0. 1.64473685e-03 0. 3.28947371e-03 3.28947371e-03
      1.64473685e-03 0. 1.64473685e-03 0. 1.64473685e-03 0. 0.
      1.64473685e-03 0. 0. 1.64473685e-03 1.64473685e-03 1.64473685e-03
      1.64473685e-03 0. 0. 1.64473685e-03 0. 0. 0. 1.64473685e-03
      1.64473685e-03 1.64473685e-03 0. 1.64473685e-03 0. 1.64473685e-03
      0. 1.64473685e-03 1.64473685e-03 0. 0. 1.64473685e-03 0. 0.
      1.64473685e-03 1.64473685e-03 0. 1.64473685e-03 1.64473685e-03 0.
      0. 1.64473685e-03 1.64473685e-03 0. 0. 0. 3.28947371e-03 0.
      1.64473685e-03 0. 0. 0. 1.64473685e-03 0. 1.64473685e-03
      1.64473685e-03 1.64473685e-03 6.57894742e-03 1.64473685e-03 0.
      3.28947371e-03 0. 0. 0. 1.64473685e-03 0. 1.64473685e-03
      3.28947371e-03 1.64473685e-03 1.64473685e-03 3.28947371e-03
      1.64473685e-03 1.64473685e-03 0. 0. 0. 1.64473685e-03 0.
      3.28947371e-03 3.28947371e-03 0. 1.64473685e-03 3.28947371e-03 0.
      0. 0. 1.64473685e-03 3.28947371e-03 1.64473685e-03 6.57894742e-03
      0. 0. 1.64473685e-03 0. 1.64473685e-03 0. 1.64473685e-03
      1.64473685e-03 1.64473685e-03 0. 3.28947371e-03 1.64473685e-03
      1.64473685e-03 0. 0. 0. 0. 0. 1.64473685e-03 0. 1.64473685e-03 0.
      1.64473685e-03 1.64473685e-03 1.64473685e-03 1.64473685e-03 0. 0.
      1.64473685e-03 0. 1.64473685e-03 1.64473685e-03 1.64473685e-03 0.
      3.28947371e-03 1.64473685e-03 0. 1.64473685e-03 1.64473685e-03
      1.64473685e-03 0. 0. 0. 1.64473685e-03 0. 0. 0. 1.64473685e-03
      3.28947371e-03 0. 0. 0. 1.64473685e-03 1.64473685e-03 0. 0. 0. 0.
      3.28947371e-03 1.64473685e-03 1.64473685e-03 0. 1.64473685e-03
      1.64473685e-03 8.22368450e-03 1.64473685e-03 3.28947371e-03 0. 0.
      0. 0. 0. 3.28947371e-03 1.64473685e-03 1.64473685e-03 0. 0.
      1.64473685e-03 1.64473685e-03 0. 0. 0. 1.64473685e-03 0.
      1.64473685e-03 3.28947371e-03 1.64473685e-03 0. 3.28947371e-03 0.
      0. 1.64473685e-03 1.64473685e-03 0. 0. 0. 0. 0. 0. 0.
      3.28947371e-03 0. 0. 0. 1.64473685e-03 0. 1.64473685e-03 0.
      1.64473685e-03 0. 0. 1.64473685e-03 6.57894742e-03 0. 0.
      1.64473685e-03 0. 1.64473685e-03 1.64473685e-03 0. 1.64473685e-03
      1.64473685e-03 0. 1.64473685e-03 1.64473685e-03 1.64473685e-03 0.
      3.28947371e-03 0. 0. 3.28947371e-03 1.64473685e-03 0.
      1.64473685e-03 0. 1.64473685e-03 0. 0. 0. 1.64473685e-03 0.
      1.64473685e-03 1.64473685e-03 1.64473685e-03 3.28947371e-03
      1.64473685e-03 0. 1.64473685e-03 0. 0. 0. 1.64473685e-03 0. 0.
      1.64473685e-03 1.64473685e-03 0. 1.64473685e-03 1.64473685e-03 0.
      0. 1.64473685e-03 0. 0. 0. 0. 0. 0. 1.64473685e-03 1.64473685e-03
      0. 0. 0. 0. 1.64473685e-03 0. 0. 1.64473685e-03 0. 1.64473685e-03
      0. 3.28947371e-03 0. 0. 0. 0. 4.93421033e-03 1.64473685e-03
      1.64473685e-03 0. 0. 0. 1.64473685e-03 0. 1.64473685e-03 0.
      1.64473685e-03 0. 1.64473685e-03 0. 0. 0. 3.28947371e-03 0. 0. 0.
      1.64473685e-03 0. 0. 0. 3.28947371e-03 0. 3.28947371e-03 0. 0. 0.
      0. 0. 0. 1.64473685e-03 0. 3.28947371e-03 1.64473685e-03
      1.64473685e-03 0. 0. 0. 0. 1.64473685e-03 0. 0. 1.64473685e-03 0.
      0. 1.64473685e-03 0. 0. 1.64473685e-03 0. 0. 0. 0. 0. 0.
      1.64473685e-03 1.64473685e-03 0. 0. 0. 0. 0. 0. 0. 0.
      1.64473685e-03 1.64473685e-03 0. 1.64473685e-03 0. 1.64473685e-03
      0. 0. 1.64473685e-03 0. 0. 0. 0. 1.64473685e-03 0. 0. 0. 0. 0. 0.
      0. 0. 0. 0. 1.64473685e-03 0. 0. 0. 1.64473685e-03 0. 0. 0. 0.
      1.64473685e-03 3.28947371e-03 1.64473685e-03 1.64473685e-03 0.
      1.64473685e-03 1.64473685e-03 0. 0. 0. 0. 0. 0. 1.64473685e-03
      1.64473685e-03 0. 1.64473685e-03 1.64473685e-03 0. 0.
      3.28947371e-03 1.64473685e-03 0. 0. 0. 0. 1.64473685e-03 0. 0.
      1.64473685e-03 0. 1.64473685e-03 0. 0. 1.64473685e-03 0.
      1.64473685e-03 1.64473685e-03 1.64473685e-03 1.64473685e-03 0.
      4.93421033e-03 1.64473685e-03 0. 3.28947371e-03 3.28947371e-03 0.
      0. 0. 1.64473685e-03 0. 3.28947371e-03 0. 1.64473685e-03 0. 0.
      1.64473685e-03 0. 1.64473685e-03 0. 0. 0. 0. 0. 0. 0.
      1.64473685e-03 1.64473685e-03 0. 0. 1.64473685e-03 0.
      1.64473685e-03 1.64473685e-03 1.64473685e-03 0. 0. 0. 0. 0. 0.
      1.64473685e-03 1.64473685e-03 1.64473685e-03 0. 0. 3.28947371e-03
      0. 4.93421033e-03 1.64473685e-03 0. 1.64473685e-03 0. 0. 0.
      1.64473685e-03 1.64473685e-03 0. 1.64473685e-03 0. 0.
      1.64473685e-03 0. 0. 3.28947371e-03 1.64473685e-03 0. 0. 0.
      1.64473685e-03 0. 0. 1.64473685e-03 0. 1.64473685e-03 0. 0.
      1.64473685e-03 1.64473685e-03 3.28947371e-03 4.93421033e-03
      1.64473685e-03 0. 0. 0. 4.93421033e-03 1.64473685e-03 0.
      1.64473685e-03 1.64473685e-03 0. 4.93421033e-03 1.64473685e-03 0.
      1.64473685e-03 1.64473685e-03 0. 3.28947371e-03 1.64473685e-03 0.
      0. 0. 0. 0. 0. 3.28947371e-03 0. 0. 1.64473685e-03 0.
      1.64473685e-03 0. 0. 0. 0. 1.64473685e-03 0. 0. 0. 0. 0. 0. 0. 0.
      0. 0. 0. 0. 3.28947371e-03 0. 0. 0. 0. 0. 0. 0. 0. 0.
      1.64473685e-03 1.15131577e-02 1.64473685e-03 1.64473685e-03
      3.28947371e-03 0. 0. 0. 1.64473685e-03 0. 0. 0. 0. 0. 0. 0. 0. 0.
      0. 1.64473685e-03 1.64473685e-03 4.93421033e-03 0. 0.
      1.64473685e-03 0. 0. 0. 1.64473685e-03 0. 1.64473685e-03 0. 0.
      1.64473685e-03 1.64473685e-03 0. 0. 0. 0. 0. 3.28947371e-03
      3.28947371e-03 1.64473685e-03 1.64473685e-03 0. 4.93421033e-03 0.
      0. 0. 0. 0. 1.64473685e-03 1.64473685e-03 1.64473685e-03
      3.28947371e-03 0. 1.64473685e-03 0. 1.64473685e-03 1.64473685e-03
      0. 4.93421033e-03 0. 0. 0. 0. 1.64473685e-03 0. 0. 4.93421033e-03
      0. 0. 3.28947371e-03 0. 0. 0. 1.64473685e-03 0. 0. 1.64473685e-03
      0. 0. 0. 3.28947371e-03 0. 0. 0. 1.64473685e-03 0. 0. 0. 0.
      1.64473685e-03 1.64473685e-03 0. 3.28947371e-03 1.64473685e-03 0.
      3.28947371e-03 0. 1.64473685e-03 6.57894742e-03 0. 0.
      1.64473685e-03 0. 0. 0. 1.64473685e-03 1.64473685e-03
      1.64473685e-03 0. 0. 3.28947371e-03 4.93421033e-03 0.
      1.64473685e-03 0. 0. 4.93421033e-03 0. 1.64473685e-03 0. 0. 0. 0.
      0. 0. 0. 0. 0. 0. 0. 1.64473685e-03 0. 0. 0. 0. 0. 0. 0.
      1.64473685e-03 1.64473685e-03 0. 0. 0. 3.28947371e-03 0. 0. 0.
      1.64473685e-03 1.64473685e-03 0. 0. 0. 1.64473685e-03 0.
      1.64473685e-03 0. 1.64473685e-03 0. 0. 0. 1.64473685e-03
      1.64473685e-03 0. 0. 1.64473685e-03 0. 0. 1.64473685e-03
      3.28947371e-03 1.64473685e-03 0. 1.64473685e-03 0. 0.
      1.64473685e-03 0. 0. 1.64473685e-03 1.64473685e-03 1.64473685e-03
      0. 1.64473685e-03 0. 0. 0. 0. 0. 0. 0. 0. 0. 4.93421033e-03
      1.64473685e-03 1.64473685e-03 0. 0. 0. 0. 0. 0. 0. 0. 0. 0. 0. 0.
      1.64473685e-03 0. 0. 0. 0. 0. 0. 0. 1.64473685e-03 0. 0. 0.
      3.28947371e-03 0. 0. 3.28947371e-03 0. 1.64473685e-03 0. 0.
      1.64473685e-03 0. 1.64473685e-03 0. 0. 1.64473685e-03
      1.64473685e-03 0. 4.93421033e-03 0. 0. 0. 1.64473685e-03 0. 0.
      3.28947371e-03 0. 3.28947371e-03 1.64473685e-03 4.93421033e-03 0.
      0. 0.</_>
    <_>
      1.74825173e-03 3.49650346e-03 3.49650346e-03 1.74825173e-03
      1.74825173e-03 0. 0. 0. 3.49650346e-03 0. 0. 0. 6.99300691e-03 0.
      0. 0. 0. 1.74825173e-03 3.49650346e-03 1.74825173e-03 0.
      1.74825173e-03 0. 1.74825173e-03 1.74825173e-03 3.49650346e-03
      3.49650346e-03 1.74825173e-03 0. 1.74825173e-03 0. 1.74825173e-03
      1.74825173e-03 1.74825173e-03 3.49650346e-03 8.74125864e-03
      1.74825173e-03 1.74825173e-03 1.74825173e-03 1.74825173e-03
      1.74825173e-03 3.49650346e-03 0. 0. 1.74825173e-03 0.
      6.99300691e-03 0. 1.74825173e-03 1.74825173e-03 1.74825173e-03
      3.49650346e-03 1.74825173e-03 0. 0. 1.74825173e-03 0.
      1.74825173e-03 1.74825173e-03 0. 1.74825173e-03 1.74825173e-03
      1.74825173e-03 1.74825173e-03 0. 1.74825173e-03 0. 0. 0.
      1.74825173e-03 1.74825173e-03 0. 1.74825173e-03 0. 1.74825173e-03
      3.49650346e-03 3.49650346e-03 1.74825173e-03 0. 0. 0. 0.
      1.74825173e-03 1.74825173e-03 1.74825173e-03 1.74825173e-03
      1.74825173e-03 0. 0. 1.74825173e-03 5.24475519e-03 0.
      1.74825173e-03 0. 1.74825173e-03 5.24475519e-03 5.24475519e-03
      1.74825173e-03 0. 1.74825173e-03 0. 0. 0. 0. 1.74825173e-03 0.
      1.74825173e-03 1.74825173e-03 3.49650346e-03 1.74825173e-03
      1.74825173e-03 0. 1.74825173e-03 3.49650346e-03 0. 1.74825173e-03
      1.74825173e-03 0. 0. 1.74825173e-03 1.74825173e-03 1.74825173e-03
      1.74825173e-03 1.74825173e-03 0. 1.74825173e-03 1.74825173e-03
      1.74825173e-03 1.74825173e-03 0. 0. 1.74825173e-03 1.74825173e-03
      1.74825173e-03 3.49650346e-03 1.74825173e-03 0. 1.74825173e-03
      1.74825173e-03 1.74825173e-03 5.24475519e-03 1.74825173e-03 0.
      1.74825173e-03 0. 0. 1.74825173e-03 5.24475519e-03 0.
      1.74825173e-03 1.74825173e-03 1.74825173e-03 1.74825173e-03
      3.49650346e-03 5.24475519e-03 1.74825173e-03 0. 1.74825173e-03 0.
      1.74825173e-03 1.74825173e-03 0. 1.74825173e-03 0. 3.49650346e-03
      1.74825173e-03 0. 0. 3.49650346e-03 0. 0. 1.74825173e-03
      3.49650346e-03 1.74825173e-03 1.74825173e-03 0. 1.74825173e-03
      1.74825173e-03 0. 0. 1.74825173e-03 1.74825173e-03 1.74825173e-03
      3.49650346e-03 0. 1.74825173e-03 1.74825173e-03 0. 1.74825173e-03
      0. 0. 0. 1.74825173e-03 1.74825173e-03 1.74825173e-03 0. 0. 0. 0.
      0. 0. 1.74825173e-03 1.74825173e-03 0. 0. 1.74825173e-03 0. 0.
      1.74825173e-03 0. 1.74825173e-03 0. 1.74825173e-03 1.74825173e-03
      1.74825173e-03 0. 1.74825173e-03 0. 1.74825173e-03 0.
      1.74825173e-03 1.74825173e-03 0. 0. 1.74825173e-03 0. 0.
      1.74825173e-03 1.74825173e-03 0. 1.74825173e-03 1.74825173e-03 0.
      0. 1.74825173e-03 1.74825173e-03 1.74825173e-03 0. 1.74825173e-03
      1.74825173e-03 0. 1.74825173e-03 1.74825173e-03 1.74825173e-03 0.
      3.49650346e-03 0. 1.74825173e-03 1.74825173e-03 1.74825173e-03
      6.99300691e-03 1.74825173e-03 1.74825173e-03 0. 1.74825173e-03 0.
      0. 1.74825173e-03 0. 1.74825173e-03 1.74825173e-03 1.74825173e-03
      1.74825173e-03 1.74825173e-03 1.74825173e-03 1.74825173e-03
      1.74825173e-03 0. 0. 1.74825173e-03 0. 3.49650346e-03
      3.49650346e-03 0. 0. 1.74825173e-03 1.74825173e-03 0.
      1.74825173e-03 0. 3.49650346e-03 1.74825173e-03 8.74125864e-03 0.
      0. 1.74825173e-03 0. 1.74825173e-03 0. 1.74825173e-03 0. 0. 0.
      3.49650346e-03 1.74825173e-03 0. 0. 0. 0. 0. 0. 0. 1.74825173e-03
      0. 0. 1.74825173e-03 1.74825173e-03 0. 1.74825173e-03 0. 0.
      1.74825173e-03 0. 3.49650346e-03 0. 1.74825173e-03 0. 0.
      1.74825173e-03 0. 0. 0. 1.74825173e-03 0. 0. 0. 1.74825173e-03 0.
      1.74825173e-03 0. 1.74825173e-03 1.74825173e-03 0. 0. 0.
      1.74825173e-03 1.74825173e-03 0. 5.24475519e-03 0. 1.74825173e-03
      1.74825173e-03 1.74825173e-03 1.74825173e-03 0. 1.74825173e-03
      1.74825173e-03 5.24475519e-03 1.74825173e-03 1.74825173e-03 0. 0.
      0. 0. 1.74825173e-03 1.74825173e-03 1.74825173e-03 1.74825173e-03
      1.74825173e-03 1.74825173e-03 0. 1.74825173e-03 0. 0. 0.
      1.74825173e-03 0. 1.74825173e-03 1.74825173e-03 1.74825173e-03 0.
      0. 0. 0. 1.74825173e-03 1.74825173e-03 0. 0. 0. 0. 0.
      1.74825173e-03 1.74825173e-03 0. 0. 0. 0. 0. 0. 1.74825173e-03 0.
      0. 0. 0. 1.74825173e-03 5.24475519e-03 0. 1.74825173e-03 0. 0.
      1.74825173e-03 1.74825173e-03 0. 1.74825173e-03 0. 0. 0.
      1.74825173e-03 1.74825173e-03 0. 3.49650346e-03 0. 0. 0.
      1.74825173e-03 0. 1.74825173e-03 0. 1.74825173e-03 0. 0. 0.
      1.74825173e-03 0. 1.74825173e-03 3.49650346e-03 1.74825173e-03 0.
      1.74825173e-03 0. 1.74825173e-03 0. 0. 0. 1.74825173e-03 0. 0.
      1.74825173e-03 3.49650346e-03 0. 1.74825173e-03 1.74825173e-03 0.
      1.74825173e-03 1.74825173e-03 0. 0. 0. 0. 0. 0. 1.74825173e-03
      1.74825173e-03 0. 0. 0. 0. 0. 0. 0. 1.74825173e-03 0.
      3.49650346e-03 0. 3.49650346e-03 0. 0. 3.49650346e-03 0.
      8.74125864e-03 1.74825173e-03 1.74825173e-03 3.49650346e-03 0. 0.
      1.74825173e-03 0. 0. 1.74825173e-03 0. 0. 0. 0. 3.49650346e-03 0.
      1.74825173e-03 1.74825173e-03 0. 0. 1.74825173e-03 1.74825173e-03
      0. 0. 1.74825173e-03 0. 0. 1.74825173e-03 3.49650346e-03 0. 0. 0.
      0. 1.74825173e-03 0. 0. 0. 1.74825173e-03 0. 0. 0. 0. 0.
      1.74825173e-03 0. 0. 0. 0. 1.74825173e-03 0. 0. 0. 0. 0. 0. 0. 0.
      0. 1.74825173e-03 1.74825173e-03 3.49650346e-03 0. 0. 0. 0. 0. 0.
      0. 1.74825173e-03 1.74825173e-03 0. 0. 1.74825173e-03
      1.74825173e-03 0. 1.74825173e-03 0. 0. 1.74825173e-03 0. 0.
      1.74825173e-03 0. 0. 0. 0. 0. 0. 0. 1.74825173e-03 0.
      1.74825173e-03 1.74825173e-03 0. 0. 0. 0. 3.49650346e-03
      1.74825173e-03 0. 1.74825173e-03 1.74825173e-03 0. 1.74825173e-03
      1.74825173e-03 0. 1.74825173e-03 1.74825173e-03 0. 0. 0.
      1.74825173e-03 0. 0. 1.74825173e-03 0. 0. 0. 1.74825173e-03 0.
      3.49650346e-03 1.74825173e-03 0. 1.74825173e-03 0. 0. 0.
      1.74825173e-03 1.74825173e-03 0. 1.74825173e-03 1.74825173e-03 0.
      0. 0. 0. 0. 5.24475519e-03 1.74825173e-03 1.74825173e-03
      1.74825173e-03 1.74825173e-03 0. 1.74825173e-03 0. 0. 0. 0. 0. 0.
      0. 1.74825173e-03 1.74825173e-03 0. 0. 1.74825173e-03
      1.74825173e-03 0. 0. 0. 0. 0. 0. 0. 0. 0. 0. 1.74825173e-03 0. 0.
      0. 0. 0. 1.74825173e-03 1.74825173e-03 0. 0. 0. 1.74825173e-03 0.
      0. 0. 0. 1.74825173e-03 1.74825173e-03 0. 0. 0. 0. 6.99300691e-03
      0. 3.49650346e-03 3.49650346e-03 3.49650346e-03 0. 0. 0.
      5.24475519e-03 1.74825173e-03 1.74825173e-03 0. 0. 0. 0. 0. 0. 0.
      0. 0. 0. 0. 0. 0. 1.74825173e-03 0. 1.74825173e-03 0. 0.
      1.74825173e-03 1.74825173e-03 0. 1.74825173e-03 1.74825173e-03 0.
      0. 0. 0. 1.74825173e-03 0. 0. 1.74825173e-03 0. 1.74825173e-03 0.
      0. 0. 0. 0. 0. 1.74825173e-03 1.74825173e-03 0. 0. 0. 0. 0.
      3.49650346e-03 0. 1.74825173e-03 0. 0. 0. 0. 1.74825173e-03
      1.74825173e-03 0. 1.74825173e-03 8.74125864e-03 0. 0.
      1.74825173e-03 0. 0. 1.74825173e-03 0. 0. 1.74825173e-03 0. 0.
      3.49650346e-03 0. 0. 1.74825173e-03 0. 0. 0. 0. 1.74825173e-03
      1.74825173e-03 1.74825173e-03 1.74825173e-02 1.74825173e-03
      6.99300691e-03 0. 0. 0. 1.74825173e-03 1.74825173e-03 0. 0.
      1.74825173e-03 0. 1.74825173e-03 0. 0. 0. 0. 0. 0. 1.74825173e-03
      3.49650346e-03 0. 0. 0. 0. 0. 0. 0. 0. 3.49650346e-03 0. 0.
      1.74825173e-03 1.74825173e-03 0. 0. 1.74825173e-03 0. 0. 0. 0.
      8.74125864e-03 0. 0. 0. 1.74825173e-03 1.74825173e-03 0. 0.
      3.49650346e-03 1.74825173e-03 1.74825173e-03 0. 0. 1.74825173e-03
      1.74825173e-03 0. 0. 0. 0. 3.49650346e-03 1.74825173e-03 0. 0. 0.
      0. 0. 0. 0. 0. 0. 0. 0. 1.74825173e-03 3.49650346e-03 0.
      3.49650346e-03 0. 0. 1.74825173e-03 0. 0. 5.24475519e-03 0. 0.
      3.49650346e-03 0. 0. 0. 0. 1.74825173e-03 0. 0. 0. 0. 0. 0.
      3.49650346e-03 1.74825173e-03 0. 0. 0. 1.74825173e-03
      1.74825173e-03 0. 0. 0. 0. 3.49650346e-03 3.49650346e-03
      3.49650346e-03 1.74825173e-03 0. 1.74825173e-03 3.49650346e-03 0.
      3.49650346e-03 0. 5.24475519e-03 0. 1.74825173e-03 0. 0. 0.
      3.49650346e-03 0. 0. 0. 0. 0. 1.74825173e-03 0. 3.49650346e-03 0.
      1.74825173e-03 0. 0. 0. 0. 0. 1.74825173e-03 3.49650346e-03 0. 0.
      0. 0. 0. 0. 1.74825173e-03 3.49650346e-03 3.49650346e-03 0. 0.
      1.74825173e-03 1.74825173e-03 0. 0. 0. 0. 0. 0. 0. 3.49650346e-03
      0. 0. 0. 1.74825173e-03 0. 0. 0. 1.74825173e-03 1.74825173e-03 0.
      0. 0. 0. 1.74825173e-03 0. 0. 1.74825173e-03 1.74825173e-03 0. 0.
      3.49650346e-03 0. 0. 0. 0. 0. 0. 0. 0. 0. 1.74825173e-03 0. 0. 0.
      0. 1.74825173e-03 0. 1.74825173e-03 0. 0. 1.74825173e-03 0. 0. 0.
      0. 5.24475519e-03 0. 0. 0. 0. 1.74825173e-03 0. 0. 0. 0. 0. 0. 0.
      0. 0. 3.49650346e-03 0. 0. 0. 0. 5.24475519e-03 0. 0. 0. 0.
      3.49650346e-03 1.74825173e-03 0. 3.49650346e-03 0. 0.
      1.74825173e-03 1.74825173e-03 1.74825173e-03 1.74825173e-03
      1.74825173e-03 5.24475519e-03 0. 1.74825173e-03 1.74825173e-03 0.
      0. 0.</_>
    <_>
      2.22717156e-03 4.45434311e-03 2.22717156e-03 2.22717156e-03
      2.22717156e-03 0. 0. 0. 0. 0. 4.45434311e-03 0. 8.90868623e-03 0.
      0. 0. 0. 2.22717156e-03 4.45434311e-03 2.22717156e-03 0.
      2.22717156e-03 0. 0. 2.22717156e-03 4.45434311e-03 4.45434311e-03
      2.22717156e-03 0. 2.22717156e-03 2.22717156e-03 2.22717156e-03
      2.22717156e-03 2.22717156e-03 2.22717156e-03 1.11358576e-02
      2.22717156e-03 2.22717156e-03 2.22717156e-03 2.22717156e-03
      2.22717156e-03 2.22717156e-03 0. 0. 2.22717156e-03 0.
      8.90868623e-03 0. 2.22717156e-03 4.45434311e-03 2.22717156e-03
      4.45434311e-03 2.22717156e-03 0. 0. 2.22717156e-03 0.
      2.22717156e-03 4.45434311e-03 0. 2.22717156e-03 2.22717156e-03
      2.22717156e-03 2.22717156e-03 2.22717156e-03 2.22717156e-03 0.
      2.22717156e-03 0. 2.22717156e-03 0. 0. 2.22717156e-03 0. 0.
      2.22717156e-03 4.45434311e-03 4.45434311e-03 0. 0. 0. 0.
      2.22717156e-03 4.45434311e-03 2.22717156e-03 0. 2.22717156e-03 0.
      4.45434311e-03 2.22717156e-03 6.68151490e-03 0. 2.22717156e-03 0.
      2.22717156e-03 0. 0. 2.22717156e-03 2.22717156e-03 4.45434311e-03
      4.45434311e-03 4.45434311e-03 0. 0. 2.22717156e-03 4.45434311e-03
      2.22717156e-03 2.22717156e-03 2.22717156e-03 2.22717156e-03
      2.22717156e-03 0. 2.22717156e-03 2.22717156e-03 0. 2.22717156e-03
      2.22717156e-03 0. 0. 2.22717156e-03 2.22717156e-03 2.22717156e-03
      2.22717156e-03 0. 2.22717156e-03 2.22717156e-03 2.22717156e-03
      2.22717156e-03 0. 2.22717156e-03 0. 2.22717156e-03 2.22717156e-03
      2.22717156e-03 2.22717156e-03 2.22717156e-03 0. 2.22717156e-03
      2.22717156e-03 2.22717156e-03 0. 0. 0. 2.22717156e-03 0.
      2.22717156e-03 2.22717156e-03 1.11358576e-02 0. 0. 2.22717156e-03
      2.22717156e-03 0. 2.22717156e-03 4.45434311e-03 2.22717156e-03
      4.45434311e-03 2.22717156e-03 4.45434311e-03 2.22717156e-03
      2.22717156e-03 0. 0. 0. 4.45434311e-03 2.22717156e-03 0. 0.
      2.22717156e-03 0. 0. 4.45434311e-03 0. 2.22717156e-03
      2.22717156e-03 0. 2.22717156e-03 2.22717156e-03 0. 0.
      2.22717156e-03 2.22717156e-03 0. 0. 0. 2.22717156e-03
      2.22717156e-03 0. 2.22717156e-03 0. 0. 0. 2.22717156e-03 0.
      2.22717156e-03 0. 0. 0. 4.45434311e-03 0. 0. 0. 0. 0. 0.
      2.22717156e-03 0. 2.22717156e-03 2.22717156e-03 0. 0. 0.
      2.22717156e-03 2.22717156e-03 2.22717156e-03 0. 2.22717156e-03 0.
      2.22717156e-03 0. 2.22717156e-03 2.22717156e-03 0. 0.
      2.22717156e-03 0. 0. 2.22717156e-03 0. 2.22717156e-03
      2.22717156e-03 2.22717156e-03 0. 0. 2.22717156e-03 2.22717156e-03
      0. 0. 2.22717156e-03 0. 0. 2.22717156e-03 0. 0. 4.45434311e-03 0.
      0. 2.22717156e-03 2.22717156e-03 2.22717156e-03 8.90868623e-03
      2.22717156e-03 2.22717156e-03 0. 0. 0. 0. 2.22717156e-03 0.
      2.22717156e-03 2.22717156e-03 2.22717156e-03 2.22717156e-03 0.
      2.22717156e-03 2.22717156e-03 2.22717156e-03 0. 0. 2.22717156e-03
      0. 4.45434311e-03 4.45434311e-03 0. 0. 4.45434311e-03 0. 0. 0. 0.
      4.45434311e-03 2.22717156e-03 8.90868623e-03 0. 0. 2.22717156e-03
      2.22717156e-03 2.22717156e-03 4.45434311e-03 2.22717156e-03
      4.45434311e-03 2.22717156e-03 0. 0. 2.22717156e-03 2.22717156e-03
      0. 0. 0. 2.22717156e-03 0. 0. 0. 2.22717156e-03 0. 2.22717156e-03
      2.22717156e-03 0. 2.22717156e-03 0. 0. 2.22717156e-03 0.
      4.45434311e-03 0. 2.22717156e-03 0. 0. 2.22717156e-03 0. 0. 0.
      2.22717156e-03 0. 0. 0. 0. 0. 0. 0. 0. 2.22717156e-03 0. 0. 0.
      2.22717156e-03 2.22717156e-03 2.22717156e-03 0. 0. 0.
      2.22717156e-03 0. 2.22717156e-03 0. 0. 2.22717156e-03 0.
      2.22717156e-03 2.22717156e-03 0. 2.22717156e-03 0. 0. 0. 0.
      2.22717156e-03 2.22717156e-03 0. 4.45434311e-03 0. 0. 0. 0. 0.
      2.22717156e-03 0. 2.22717156e-03 2.22717156e-03 2.22717156e-03 0.
      0. 0. 2.22717156e-03 2.22717156e-03 2.22717156e-03 0. 0. 0. 0. 0.
      0. 0. 0. 0. 0. 0. 0. 0. 2.22717156e-03 0. 0. 0. 0. 2.22717156e-03
      2.22717156e-03 0. 2.22717156e-03 0. 0. 2.22717156e-03
      2.22717156e-03 0. 2.22717156e-03 0. 0. 2.22717156e-03
      2.22717156e-03 2.22717156e-03 2.22717156e-03 4.45434311e-03 0.
      2.22717156e-03 0. 2.22717156e-03 0. 2.22717156e-03 0.
      2.22717156e-03 0. 0. 0. 0. 0. 2.22717156e-03 0. 0. 0.
      2.22717156e-03 0. 2.22717156e-03 0. 0. 0. 0. 0. 0. 2.22717156e-03
      0. 0. 2.22717156e-03 0. 0. 0. 2.22717156e-03 0. 0. 0.
      2.22717156e-03 0. 0. 2.22717156e-03 6.68151490e-03 0. 0. 0.
      2.22717156e-03 0. 0. 4.45434311e-03 2.22717156e-03 0.
      2.22717156e-03 0. 4.45434311e-03 0. 0. 0. 0. 4.45434311e-03 0. 0.
      0. 0. 0. 4.45434311e-03 0. 0. 2.22717156e-03 0. 0. 2.22717156e-03
      0. 0. 0. 2.22717156e-03 0. 2.22717156e-03 0. 2.22717156e-03
      6.68151490e-03 0. 0. 0. 0. 0. 0. 0. 0. 0. 0. 0. 0. 0. 0. 0.
      2.22717156e-03 0. 0. 0. 2.22717156e-03 0. 2.22717156e-03 0. 0. 0.
      0. 4.45434311e-03 0. 0. 2.22717156e-03 0. 0. 0. 0. 0. 0.
      4.45434311e-03 2.22717156e-03 4.45434311e-03 0. 0. 0. 0. 0. 0. 0.
      2.22717156e-03 2.22717156e-03 0. 4.45434311e-03 0. 2.22717156e-03
      0. 0. 0. 0. 0. 0. 0. 0. 0. 1.11358576e-02 0. 0. 0. 6.68151490e-03
      0. 0. 2.22717156e-03 0. 2.22717156e-03 0. 0. 0. 4.45434311e-03 0.
      0. 0. 0. 2.22717156e-03 0. 2.22717156e-03 4.45434311e-03 0. 0.
      2.22717156e-03 0. 4.45434311e-03 0. 0. 2.22717156e-03 0.
      2.22717156e-03 2.22717156e-03 0. 0. 0. 0. 2.22717156e-03 0. 0.
      4.45434311e-03 2.22717156e-03 0. 2.22717156e-03 2.22717156e-03 0.
      0. 0. 0. 0. 0. 0. 0. 0. 0. 2.22717156e-03 2.22717156e-03
      2.22717156e-03 2.22717156e-03 2.22717156e-03 2.22717156e-03 0. 0.
      0. 0. 0. 0. 0. 0. 2.22717156e-03 0. 0. 0. 0. 0. 0. 2.22717156e-03
      0. 0. 0. 0. 0. 0. 0. 0. 0. 2.22717156e-03 0. 4.45434311e-03 0.
      4.45434311e-03 2.22717156e-03 0. 0. 0. 0. 0. 2.22717156e-03 0. 0.
      0. 0. 0. 0. 0. 0. 0. 0. 2.22717156e-03 0. 0. 0. 2.22717156e-03 0.
      0. 4.45434311e-03 0. 0. 2.22717156e-03 0. 0. 0. 0. 0.
      2.22717156e-03 0. 0. 0. 0. 0. 2.22717156e-03 0. 0. 0.
      2.22717156e-03 2.22717156e-03 2.22717156e-03 0. 0. 2.22717156e-03
      0. 0. 0. 2.22717156e-03 0. 0. 0. 0. 0. 2.22717156e-03 0.
      2.22717156e-03 0. 2.22717156e-03 0. 0. 2.22717156e-03 0. 0. 0. 0.
      0. 0. 0. 0. 0. 2.22717156e-03 0. 0. 0. 0. 0. 0. 0. 2.22717156e-03
      0. 0. 0. 0. 0. 2.22717156e-03 0. 2.22717156e-03 2.22717156e-03
      2.22717156e-03 0. 2.22717156e-03 0. 0. 0. 0. 0. 0. 0. 0. 0. 0.
      2.22717156e-03 0. 0. 0. 0. 0. 0. 2.22717156e-03 0. 0. 0.
      2.22717156e-03 0. 0. 0. 0. 0. 2.22717156e-03 0. 0. 4.45434311e-03
      0. 0. 0. 0. 0. 0. 0. 0. 0. 0. 0. 2.22717156e-03 2.22717156e-03 0.
      0. 0. 0. 0. 0. 0. 4.45434311e-03 0. 0. 0. 0. 0. 1.11358576e-02 0.
      2.22717156e-03 2.22717156e-03 2.22717156e-03 2.22717156e-03 0. 0.
      2.22717156e-03 0. 0. 2.22717156e-03 0. 4.45434311e-03 0.
      2.22717156e-03 0. 0. 0. 0. 4.45434311e-03 0. 2.22717156e-03 0. 0.
      0. 0. 0. 0. 0. 0. 0. 0. 0. 0. 0. 0. 0. 0. 0. 0. 2.22717156e-03 0.
      2.22717156e-03 0. 0. 0. 0. 0. 2.22717156e-03 0. 2.22717156e-03 0.
      0. 2.22717156e-03 0. 0. 0. 0. 0. 0. 2.22717156e-03 4.45434311e-03
      2.22717156e-03 0. 0. 0. 0. 0. 0. 0. 6.68151490e-03 0. 0. 0. 0. 0.
      2.22717156e-03 0. 0. 0. 0. 0. 2.22717156e-03 0. 4.45434311e-03 0.
      0. 0. 0. 0. 0. 0. 2.22717156e-03 0. 0. 0. 0. 0. 0. 0. 0.
      2.22717156e-03 0. 0. 0. 0. 0. 0. 0. 0. 0. 0. 0. 0. 0. 0. 0. 0.
      4.45434311e-03 2.22717156e-03 0. 0. 0. 0. 0. 0. 2.22717156e-03 0.
      0. 0. 0. 2.22717156e-03 0. 0. 0. 0. 0. 0. 0. 0. 0. 2.22717156e-03
      2.22717156e-03 0. 0. 6.68151490e-03 0. 0. 0. 0. 2.22717156e-03
      2.22717156e-03 0. 0. 0. 0. 2.22717156e-03 0. 0. 0. 2.22717156e-03
      0. 0. 0. 0. 0. 2.22717156e-03 0. 2.22717156e-03 0. 0. 0. 0. 0. 0.
      0. 0. 0. 0. 0. 0. 0. 0. 0. 0. 2.22717156e-03 0. 0. 2.22717156e-03
      0. 0. 0. 0. 0. 2.22717156e-03 0. 2.22717156e-03 0. 0. 0. 0. 0. 0.</_>
    <_>
      2.20264308e-03 4.40528616e-03 4.40528616e-03 2.20264308e-03
      2.20264308e-03 0. 2.20264308e-03 0. 0. 0. 2.20264308e-03
      4.40528616e-03 1.32158585e-02 0. 0. 0. 2.20264308e-03
      2.20264308e-03 2.20264308e-03 4.40528616e-03 0. 2.20264308e-03 0.
      0. 2.20264308e-03 6.60792924e-03 8.81057233e-03 2.20264308e-03 0.
      2.20264308e-03 0. 2.20264308e-03 2.20264308e-03 0. 2.20264308e-03
      6.60792924e-03 2.20264308e-03 0. 2.20264308e-03 2.20264308e-03
      2.20264308e-03 2.20264308e-03 0. 0. 2.20264308e-03 2.20264308e-03
      1.32158585e-02 0. 0. 2.20264308e-03 2.20264308e-03 4.40528616e-03
      2.20264308e-03 0. 0. 2.20264308e-03 0. 2.20264308e-03
      2.20264308e-03 0. 2.20264308e-03 2.20264308e-03 2.20264308e-03
      2.20264308e-03 0. 2.20264308e-03 0. 2.20264308e-03 0.
      2.20264308e-03 0. 0. 2.20264308e-03 0. 0. 2.20264308e-03
      6.60792924e-03 0. 0. 2.20264308e-03 0. 0. 2.20264308e-03
      2.20264308e-03 2.20264308e-03 2.20264308e-03 2.20264308e-03 0. 0.
      2.20264308e-03 6.60792924e-03 0. 2.20264308e-03 0. 2.20264308e-03
      0. 0. 2.20264308e-03 0. 2.20264308e-03 0. 0. 0. 0. 2.20264308e-03
      0. 2.20264308e-03 2.20264308e-03 4.40528616e-03 2.20264308e-03
      2.20264308e-03 0. 0. 2.20264308e-03 0. 2.20264308e-03
      2.20264308e-03 0. 0. 2.20264308e-03 2.20264308e-03 2.20264308e-03
      2.20264308e-03 0. 0. 2.20264308e-03 2.20264308e-03 2.20264308e-03
      0. 0. 0. 2.20264308e-03 2.20264308e-03 2.20264308e-03
      6.60792924e-03 2.20264308e-03 2.20264308e-03 2.20264308e-03
      2.20264308e-03 2.20264308e-03 2.20264308e-03 0. 0. 2.20264308e-03
      0. 0. 0. 6.60792924e-03 0. 2.20264308e-03 4.40528616e-03 0. 0.
      2.20264308e-03 4.40528616e-03 2.20264308e-03 0. 2.20264308e-03 0.
      2.20264308e-03 2.20264308e-03 0. 2.20264308e-03 0. 8.81057233e-03
      2.20264308e-03 0. 6.60792924e-03 2.20264308e-03 2.20264308e-03 0.
      2.20264308e-03 0. 2.20264308e-03 2.20264308e-03 0. 2.20264308e-03
      2.20264308e-03 0. 0. 2.20264308e-03 2.20264308e-03 2.20264308e-03
      0. 0. 2.20264308e-03 2.20264308e-03 0. 2.20264308e-03 0. 0. 0. 0.
      0. 2.20264308e-03 0. 2.20264308e-03 2.20264308e-03 0. 0. 0.
      2.20264308e-03 0. 0. 0. 2.20264308e-03 0. 0. 2.20264308e-03 0. 0.
      0. 0. 2.20264308e-03 0. 0. 2.20264308e-03 2.20264308e-03
      2.20264308e-03 0. 2.20264308e-03 2.20264308e-03 0. 0.
      2.20264308e-03 0. 2.20264308e-03 2.20264308e-03 2.20264308e-03 0.
      2.20264308e-03 2.20264308e-03 0. 0. 0. 2.20264308e-03
      2.20264308e-03 0. 2.20264308e-03 0. 0. 2.20264308e-03 0.
      2.20264308e-03 0. 0. 0. 0. 2.20264308e-03 2.20264308e-03
      8.81057233e-03 2.20264308e-03 0. 0. 0. 2.20264308e-03 0.
      2.20264308e-03 0. 2.20264308e-03 2.20264308e-03 2.20264308e-03
      2.20264308e-03 0. 2.20264308e-03 2.20264308e-03 2.20264308e-03 0.
      0. 2.20264308e-03 0. 4.40528616e-03 6.60792924e-03 0. 0.
      2.20264308e-03 0. 0. 0. 0. 4.40528616e-03 2.20264308e-03
      4.40528616e-03 0. 0. 2.20264308e-03 2.20264308e-03 2.20264308e-03
      4.40528616e-03 2.20264308e-03 0. 0. 0. 4.40528616e-03
      2.20264308e-03 2.20264308e-03 0. 2.20264308e-03 0. 2.20264308e-03
      0. 0. 2.20264308e-03 2.20264308e-03 0. 2.20264308e-03
      2.20264308e-03 0. 2.20264308e-03 0. 0. 2.20264308e-03 0.
      4.40528616e-03 4.40528616e-03 2.20264308e-03 0. 0. 2.20264308e-03
      0. 2.20264308e-03 0. 2.20264308e-03 0. 2.20264308e-03 0. 0. 0.
      2.20264308e-03 0. 4.40528616e-03 2.20264308e-03 0. 0. 0.
      2.20264308e-03 2.20264308e-03 0. 0. 0. 0. 0. 0. 2.20264308e-03 0.
      0. 2.20264308e-03 0. 2.20264308e-03 2.20264308e-03 0. 0. 0. 0. 0.
      0. 2.20264308e-03 2.20264308e-03 0. 0. 0. 0. 0. 0. 2.20264308e-03
      2.20264308e-03 0. 2.20264308e-03 2.20264308e-03 2.20264308e-03 0.
      0. 2.20264308e-03 4.40528616e-03 2.20264308e-03 0. 0. 0. 0. 0.
      2.20264308e-03 4.40528616e-03 0. 0. 2.20264308e-03 0. 0. 0. 0.
      2.20264308e-03 0. 0. 0. 0. 2.20264308e-03 2.20264308e-03 0.
      2.20264308e-03 0. 2.20264308e-03 2.20264308e-03 2.20264308e-03 0.
      2.20264308e-03 0. 0. 0. 2.20264308e-03 2.20264308e-03 0.
      4.40528616e-03 0. 0. 0. 2.20264308e-03 0. 2.20264308e-03 0.
      2.20264308e-03 0. 0. 0. 0. 0. 2.20264308e-03 0. 2.20264308e-03 0.
      2.20264308e-03 0. 2.20264308e-03 0. 0. 0. 0. 0. 0. 2.20264308e-03
      2.20264308e-03 0. 2.20264308e-03 2.20264308e-03 2.20264308e-03 0.
      2.20264308e-03 0. 0. 0. 0. 0. 0. 2.20264308e-03 0. 4.40528616e-03
      0. 0. 2.20264308e-03 0. 0. 0. 2.20264308e-03 0. 2.20264308e-03
      2.20264308e-03 4.40528616e-03 0. 0. 0. 0. 6.60792924e-03
      2.20264308e-03 0. 0. 0. 0. 4.40528616e-03 2.20264308e-03 0. 0. 0.
      0. 0. 0. 0. 2.20264308e-03 0. 2.20264308e-03 0. 0. 2.20264308e-03
      2.20264308e-03 0. 0. 0. 0. 0. 0. 0. 2.20264308e-03 0. 0. 0.
      4.40528616e-03 2.20264308e-03 0. 0. 2.20264308e-03 0. 0.
      2.20264308e-03 2.20264308e-03 2.20264308e-03 0. 0. 2.20264308e-03
      2.20264308e-03 0. 2.20264308e-03 2.20264308e-03 2.20264308e-03 0.
      0. 0. 0. 0. 4.40528616e-03 0. 2.20264308e-03 2.20264308e-03 0. 0.
      0. 2.20264308e-03 0. 0. 0. 0. 2.20264308e-03 2.20264308e-03 0. 0.
      2.20264308e-03 2.20264308e-03 0. 0. 4.40528616e-03 0. 0.
      2.20264308e-03 0. 0. 2.20264308e-03 2.20264308e-03 0.
      2.20264308e-03 0. 6.60792924e-03 0. 0. 0. 0. 2.20264308e-03 0. 0.
      0. 0. 0. 0. 0. 0. 2.20264308e-03 0. 2.20264308e-03 2.20264308e-03
      0. 0. 2.20264308e-03 0. 4.40528616e-03 0. 0. 0. 0. 2.20264308e-03
      0. 0. 0. 2.20264308e-03 0. 0. 0. 0. 0. 0. 0. 0. 2.20264308e-03 0.
      0. 0. 0. 0. 0. 0. 0. 0. 0. 2.20264308e-03 2.20264308e-03
      2.20264308e-03 2.20264308e-03 0. 2.20264308e-03 0. 0. 0. 0. 0. 0.
      0. 0. 4.40528616e-03 0. 0. 0. 0. 4.40528616e-03 0. 0. 0. 0. 0. 0.
      0. 0. 0. 2.20264308e-03 0. 0. 0. 2.20264308e-03 0. 2.20264308e-03
      2.20264308e-03 2.20264308e-03 0. 0. 0. 2.20264308e-03 0. 0. 0. 0.
      0. 0. 4.40528616e-03 0. 0. 0. 0. 0. 0. 0. 0. 0. 0. 0. 0. 0. 0. 0.
      2.20264308e-03 0. 0. 0. 0. 0. 0. 0. 0. 0. 0. 2.20264308e-03 0. 0.
      0. 0. 2.20264308e-03 2.20264308e-03 0. 0. 0. 0. 0. 0. 0. 0. 0.
      2.20264308e-03 2.20264308e-03 2.20264308e-03 0. 0. 2.20264308e-03
      0. 0. 0. 0. 2.20264308e-03 0. 0. 0. 0. 0. 2.20264308e-03
      2.20264308e-03 0. 0. 0. 0. 0. 0. 0. 0. 0. 0. 0. 0. 0. 0. 0.
      2.20264308e-03 0. 0. 0. 0. 0. 0. 2.20264308e-03 2.20264308e-03 0.
      2.20264308e-03 0. 0. 2.20264308e-03 0. 0. 0. 0. 8.81057233e-03 0.
      0. 0. 2.20264308e-03 2.20264308e-03 0. 0. 0. 0. 2.20264308e-03 0.
      2.20264308e-03 0. 0. 0. 0. 0. 0. 0. 6.60792924e-03 2.20264308e-03
      0. 0. 0. 0. 0. 0. 0. 2.20264308e-03 0. 0. 2.20264308e-03
      2.20264308e-03 0. 0. 0. 0. 2.20264308e-03 0. 0. 2.20264308e-03 0.
      0. 6.60792924e-03 0. 0. 8.81057233e-03 0. 2.20264308e-03
      8.81057233e-03 2.20264308e-03 2.20264308e-03 0. 0. 2.20264308e-03
      0. 0. 0. 0. 6.60792924e-03 2.20264308e-03 0. 0. 2.20264308e-03 0.
      0. 0. 0. 2.20264308e-03 2.20264308e-03 0. 0. 0. 0. 0.
      2.20264308e-03 0. 0. 0. 2.20264308e-03 0. 2.20264308e-03 0. 0. 0.
      0. 0. 2.20264308e-03 0. 0. 2.20264308e-03 0. 0. 0. 0.
      2.20264308e-03 0. 2.20264308e-03 0. 0. 0. 0. 0. 0. 2.20264308e-03
      0. 0. 2.20264308e-03 0. 0. 0. 0. 0. 2.20264308e-03 0. 0. 0.
      6.60792924e-03 0. 0. 0. 0. 0. 2.20264308e-03 0. 0. 2.20264308e-03
      0. 0. 0. 4.40528616e-03 0. 0. 2.20264308e-03 0. 2.20264308e-03
      2.20264308e-03 0. 0. 2.20264308e-03 2.20264308e-03 0. 0. 0. 0.
      2.20264308e-03 0. 2.20264308e-03 2.20264308e-03 0. 0. 0. 0.
      2.20264308e-03 0. 0. 0. 0. 0. 0. 0. 0. 2.20264308e-03 0. 0.
      2.20264308e-03 0. 0. 0. 0. 0. 0. 0. 0. 0. 0. 0. 0. 2.20264308e-03
      0. 0. 0. 4.40528616e-03 0. 0. 0. 0. 0. 0. 0. 0. 2.20264308e-03 0.
      0. 0. 0. 2.20264308e-03 2.20264308e-03 0. 0. 0. 0. 0.
      2.20264308e-03 0. 0. 0. 0. 0. 2.20264308e-03 0. 0. 0. 0. 0. 0.
      2.20264308e-03 0. 0. 2.20264308e-03 0. 0. 0. 0. 0. 0. 0. 0. 0. 0.
      0. 0. 0. 0. 0. 6.60792924e-03 0. 0. 0. 0. 0. 2.20264308e-03 0. 0.
      0. 0. 0. 0. 0. 0.</_>
    <_>
      1.90114067e-03 3.80228134e-03 1.90114067e-03 1.90114067e-03
      1.90114067e-03 0. 0. 1.90114067e-03 1.90114067e-03 0. 0.
      1.90114067e-03 7.60456268e-03 0. 0. 0. 0. 1.90114067e-03
      3.80228134e-03 5.70342224e-03 1.90114067e-03 1.90114067e-03 0. 0.
      1.90114067e-03 3.80228134e-03 7.60456268e-03 1.90114067e-03 0.
      1.90114067e-03 1.90114067e-03 1.90114067e-03 1.90114067e-03 0.
      1.90114067e-03 1.90114067e-03 1.90114067e-03 0. 1.90114067e-03
      1.90114067e-03 1.90114067e-03 3.80228134e-03 0. 0. 1.90114067e-03
      0. 7.60456268e-03 0. 1.90114067e-03 1.90114067e-03 1.90114067e-03
      3.80228134e-03 1.90114067e-03 0. 0. 1.90114067e-03 1.90114067e-03
      1.90114067e-03 1.90114067e-03 0. 1.90114067e-03 1.90114067e-03
      1.90114067e-03 1.90114067e-03 0. 1.90114067e-03 0. 0. 0.
      1.90114067e-03 3.80228134e-03 0. 1.90114067e-03 0. 0.
      3.80228134e-03 3.80228134e-03 0. 0. 0. 0. 0. 1.90114067e-03
      1.90114067e-03 1.90114067e-03 0. 1.90114067e-03 0. 0.
      1.90114067e-03 5.70342224e-03 0. 1.90114067e-03 0. 1.90114067e-03
      5.70342224e-03 9.50570311e-03 1.90114067e-03 0. 1.90114067e-03 0.
      0. 0. 0. 1.90114067e-03 0. 1.90114067e-03 1.90114067e-03
      1.90114067e-03 1.90114067e-03 1.90114067e-03 0. 0. 1.90114067e-03
      0. 1.90114067e-03 1.90114067e-03 1.90114067e-03 0. 1.90114067e-03
      1.90114067e-03 1.90114067e-03 1.90114067e-03 1.90114067e-03 0.
      1.90114067e-03 1.90114067e-03 1.90114067e-03 3.80228134e-03
      3.80228134e-03 0. 1.90114067e-03 1.90114067e-03 1.90114067e-03
      5.70342224e-03 1.90114067e-03 3.80228134e-03 1.90114067e-03
      1.90114067e-03 1.90114067e-03 0. 0. 0. 1.90114067e-03 0.
      1.90114067e-03 0. 5.70342224e-03 1.90114067e-03 0. 1.90114067e-03
      0. 1.90114067e-03 1.90114067e-03 3.80228134e-03 1.90114067e-03 0.
      1.90114067e-03 0. 1.90114067e-03 1.90114067e-03 0. 1.90114067e-03
      0. 7.60456268e-03 1.90114067e-03 0. 0. 3.80228134e-03 0. 0.
      1.90114067e-03 0. 1.90114067e-03 1.90114067e-03 0. 1.90114067e-03
      1.90114067e-03 0. 0. 1.90114067e-03 1.90114067e-03 0. 0. 0.
      1.90114067e-03 1.90114067e-03 0. 1.90114067e-03 0. 0. 0.
      3.80228134e-03 0. 1.90114067e-03 0. 0. 0. 0. 0. 0. 0. 0. 0. 0.
      1.90114067e-03 0. 0. 1.90114067e-03 0. 0. 1.90114067e-03
      1.90114067e-03 1.90114067e-03 0. 1.90114067e-03 1.90114067e-03
      1.90114067e-03 1.90114067e-03 0. 1.90114067e-03 1.90114067e-03 0.
      0. 1.90114067e-03 1.90114067e-03 0. 1.90114067e-03 1.90114067e-03
      1.90114067e-03 1.90114067e-03 1.90114067e-03 0. 0. 1.90114067e-03
      1.90114067e-03 1.90114067e-03 0. 1.90114067e-03 1.90114067e-03 0.
      1.90114067e-03 0. 3.80228134e-03 0. 1.90114067e-03 1.90114067e-03
      0. 1.90114067e-03 1.90114067e-03 9.50570311e-03 1.90114067e-03 0.
      0. 0. 0. 0. 1.90114067e-03 0. 3.80228134e-03 1.90114067e-03
      1.90114067e-03 1.90114067e-03 0. 3.80228134e-03 1.90114067e-03
      1.90114067e-03 0. 0. 1.90114067e-03 0. 3.80228134e-03
      3.80228134e-03 1.90114067e-03 0. 0. 0. 0. 0. 0. 3.80228134e-03
      1.90114067e-03 9.50570311e-03 0. 0. 1.90114067e-03 0.
      1.90114067e-03 0. 1.90114067e-03 0. 0. 1.90114067e-03
      3.80228134e-03 1.90114067e-03 1.90114067e-03 0. 0. 0. 0. 0. 0. 0.
      0. 0. 1.90114067e-03 1.90114067e-03 0. 1.90114067e-03 0. 0.
      1.90114067e-03 0. 3.80228134e-03 0. 1.90114067e-03 0. 0.
      1.90114067e-03 0. 0. 0. 1.90114067e-03 0. 1.90114067e-03
      1.90114067e-03 1.90114067e-03 0. 1.90114067e-03 1.90114067e-03
      1.90114067e-03 1.90114067e-03 0. 0. 0. 1.90114067e-03
      1.90114067e-03 0. 3.80228134e-03 0. 0. 1.90114067e-03 0.
      1.90114067e-03 0. 0. 1.90114067e-03 1.90114067e-03 1.90114067e-03
      3.80228134e-03 0. 0. 0. 0. 1.90114067e-03 1.90114067e-03
      1.90114067e-03 1.90114067e-03 1.90114067e-03 1.90114067e-03 0. 0.
      0. 0. 1.90114067e-03 1.90114067e-03 0. 1.90114067e-03
      1.90114067e-03 1.90114067e-03 0. 0. 0. 0. 1.90114067e-03
      1.90114067e-03 0. 0. 3.80228134e-03 0. 1.90114067e-03 0.
      1.90114067e-03 1.90114067e-03 3.80228134e-03 0. 0. 0. 0.
      1.90114067e-03 0. 0. 1.90114067e-03 1.90114067e-03 1.90114067e-03
      7.60456268e-03 0. 0. 0. 1.90114067e-03 1.90114067e-03
      1.90114067e-03 0. 1.90114067e-03 0. 0. 3.80228134e-03
      1.90114067e-03 1.90114067e-03 0. 3.80228134e-03 1.90114067e-03 0.
      0. 1.90114067e-03 0. 1.90114067e-03 0. 1.90114067e-03 0. 0. 0. 0.
      0. 1.90114067e-03 0. 0. 0. 1.90114067e-03 0. 1.90114067e-03 0. 0.
      0. 0. 0. 0. 1.90114067e-03 0. 0. 1.90114067e-03 3.80228134e-03 0.
      0. 1.90114067e-03 0. 0. 0. 1.90114067e-03 0. 0. 1.90114067e-03 0.
      0. 0. 0. 1.90114067e-03 1.90114067e-03 1.90114067e-03 0.
      1.90114067e-03 0. 1.90114067e-03 1.90114067e-03 3.80228134e-03 0.
      0. 3.80228134e-03 0. 9.50570311e-03 1.90114067e-03 3.80228134e-03
      3.80228134e-03 1.90114067e-03 0. 1.90114067e-03 0. 0.
      1.90114067e-03 0. 0. 0. 0. 0. 1.90114067e-03 1.90114067e-03 0. 0.
      0. 1.90114067e-03 1.90114067e-03 0. 0. 0. 0. 0. 0. 0. 0. 0.
      1.90114067e-03 0. 1.90114067e-03 0. 0. 0. 1.90114067e-03 0. 0.
      1.90114067e-03 0. 0. 1.90114067e-03 0. 0. 0. 0. 1.90114067e-03 0.
      0. 1.90114067e-03 0. 0. 1.90114067e-03 0. 0. 0. 1.90114067e-03
      1.90114067e-03 0. 0. 1.90114067e-03 0. 0. 1.90114067e-03 0. 0.
      1.90114067e-03 1.90114067e-03 0. 0. 0. 1.90114067e-03 0.
      1.90114067e-03 1.90114067e-03 0. 1.90114067e-03 0. 0. 0. 0.
      1.90114067e-03 0. 0. 0. 0. 0. 0. 0. 1.90114067e-03 3.80228134e-03
      0. 0. 0. 0. 0. 0. 0. 0. 1.90114067e-03 1.90114067e-03
      1.90114067e-03 1.90114067e-03 0. 1.90114067e-03 1.90114067e-03 0.
      0. 0. 0. 0. 0. 1.90114067e-03 1.90114067e-03 0. 0. 1.90114067e-03
      1.90114067e-03 0. 1.90114067e-03 0. 0. 0. 0. 0. 1.90114067e-03 0.
      0. 1.90114067e-03 1.90114067e-03 0. 0. 0. 3.80228134e-03 0. 0.
      1.90114067e-03 1.90114067e-03 1.90114067e-03 0. 0. 1.90114067e-03
      1.90114067e-03 3.80228134e-03 0. 0. 0. 0. 0. 0. 1.90114067e-03 0.
      1.90114067e-03 1.90114067e-03 0. 0. 0. 0. 0. 0. 0. 1.90114067e-03
      0. 0. 0. 0. 1.90114067e-03 0. 0. 1.90114067e-03 0. 1.90114067e-03
      1.90114067e-03 3.80228134e-03 0. 0. 0. 0. 0. 1.90114067e-03 0. 0.
      3.80228134e-03 1.90114067e-03 0. 0. 0. 3.80228134e-03 0.
      3.80228134e-03 0. 0. 0. 0. 0. 3.80228134e-03 1.90114067e-03 0. 0.
      0. 0. 0. 0. 0. 0. 0. 0. 0. 0. 0. 1.90114067e-03 1.90114067e-03 0.
      0. 0. 0. 1.90114067e-03 1.90114067e-03 0. 3.80228134e-03
      1.90114067e-03 1.90114067e-03 0. 0. 0. 0. 0. 0. 0. 0. 0. 0. 0. 0.
      0. 0. 0. 1.90114067e-03 1.90114067e-03 0. 0. 0. 0. 0. 0. 0. 0.
      3.80228134e-03 1.90114067e-03 0. 0. 0. 1.90114067e-03 0.
      1.90114067e-03 1.90114067e-03 1.90114067e-03 0. 1.90114067e-03 0.
      0. 1.90114067e-03 0. 0. 1.90114067e-03 0. 0. 0. 1.90114067e-03 0.
      1.90114067e-03 0. 0. 0. 0. 0. 0. 0. 1.33079849e-02 1.90114067e-03
      0. 0. 0. 1.90114067e-03 0. 1.90114067e-03 0. 1.90114067e-03 0. 0.
      0. 0. 0. 3.80228134e-03 0. 0. 0. 0. 3.80228134e-03 1.90114067e-03
      1.90114067e-03 0. 0. 1.90114067e-03 0. 0. 0. 0. 0. 1.90114067e-03
      1.90114067e-03 1.90114067e-03 0. 0. 1.90114067e-03 0.
      1.90114067e-03 0. 3.80228134e-03 5.70342224e-03 1.90114067e-03
      3.80228134e-03 0. 0. 0. 3.80228134e-03 0. 0. 1.90114067e-03
      1.90114067e-03 1.90114067e-03 0. 0. 1.90114067e-03 3.80228134e-03
      0. 1.90114067e-03 0. 3.80228134e-03 0. 0. 0. 0. 1.90114067e-03 0.
      0. 0. 0. 0. 0. 0. 0. 0. 0. 0. 0. 7.60456268e-03 0. 0. 0.
      3.80228134e-03 0. 0. 0. 0. 0. 0. 0. 0. 0. 0. 0. 0. 1.90114067e-03
      1.90114067e-03 0. 0. 0. 0. 0. 1.90114067e-03 0. 0. 0. 0. 0.
      1.90114067e-03 0. 0. 0. 0. 3.80228134e-03 0. 0. 0. 0.
      5.70342224e-03 0. 0. 0. 0. 0. 1.90114067e-03 0. 1.90114067e-03 0.
      0. 0. 0. 0. 3.80228134e-03 0. 0. 0. 0. 0. 0. 0. 1.90114067e-03
      1.90114067e-03 1.90114067e-03 1.90114067e-03 0. 0. 0. 0. 0.
      3.80228134e-03 3.80228134e-03 0. 0. 0. 1.90114067e-03 0. 0. 0. 0.
      0. 0. 1.90114067e-03 1.90114067e-03 0. 0. 1.90114067e-03
      1.90114067e-03 0. 0. 3.80228134e-03 1.90114067e-03 0. 0. 0. 0.
      1.90114067e-03 0. 0. 0. 1.90114067e-03 1.90114067e-03 0. 0. 0. 0.
      0. 0. 0. 0. 0. 1.90114067e-03 0. 0. 1.90114067e-03 0. 0. 0. 0. 0.
      0. 0. 0. 0. 0. 3.80228134e-03 0. 0. 0. 0. 0. 0. 0. 0.
      1.90114067e-03 0. 0. 0. 0. 0. 0. 3.80228134e-03 0. 1.90114067e-03
      1.90114067e-03 0. 3.80228134e-03 0. 0. 1.90114067e-03 0.
      3.80228134e-03 0. 0. 0. 1.90114067e-03 1.90114067e-03
      3.80228134e-03 0. 1.90114067e-03 0. 0. 0. 1.90114067e-03
      1.90114067e-03 1.90114067e-03 0. 0. 3.80228134e-03 0. 0. 0.</_>
    <_>
      1.29032263e-03 2.58064526e-03 2.58064526e-03 1.29032263e-03
      1.29032263e-03 0. 0. 0. 0. 0. 1.29032263e-03 1.29032263e-03
      5.16129052e-03 0. 2.58064526e-03 0. 1.29032263e-03 1.29032263e-03
      2.58064526e-03 1.29032263e-03 0. 1.29032263e-03 0. 0.
      1.29032263e-03 2.58064526e-03 5.16129052e-03 1.29032263e-03 0.
      1.29032263e-03 1.29032263e-03 1.29032263e-03 1.29032263e-03 0.
      1.29032263e-03 1.16129033e-02 1.29032263e-03 0. 1.29032263e-03
      1.29032263e-03 1.29032263e-03 1.29032263e-03 0. 0. 1.29032263e-03
      1.29032263e-03 5.16129052e-03 0. 1.29032263e-03 1.29032263e-03
      1.29032263e-03 2.58064526e-03 1.29032263e-03 0. 2.58064526e-03
      1.29032263e-03 0. 1.29032263e-03 1.29032263e-03 0. 1.29032263e-03
      1.29032263e-03 1.29032263e-03 1.29032263e-03 0. 1.29032263e-03 0.
      0. 3.87096778e-03 1.29032263e-03 0. 0. 1.29032263e-03
      1.29032263e-03 0. 1.29032263e-03 2.58064526e-03 0. 0.
      1.29032263e-03 1.29032263e-03 0. 1.29032263e-03 2.58064526e-03
      1.29032263e-03 0. 1.29032263e-03 0. 0. 1.29032263e-03
      3.87096778e-03 0. 1.29032263e-03 0. 1.29032263e-03 1.29032263e-03
      1.29032263e-03 1.29032263e-03 0. 1.29032263e-03 0. 0. 0. 0.
      1.29032263e-03 0. 1.29032263e-03 1.29032263e-03 2.58064526e-03
      1.29032263e-03 1.29032263e-03 3.87096778e-03 1.29032263e-03
      1.29032263e-03 0. 1.29032263e-03 1.29032263e-03 0. 0.
      1.29032263e-03 1.29032263e-03 1.29032263e-03 1.29032263e-03 0. 0.
      1.29032263e-03 1.29032263e-03 1.29032263e-03 1.29032263e-03 0. 0.
      1.29032263e-03 1.29032263e-03 1.29032263e-03 3.87096778e-03
      1.29032263e-03 0. 1.29032263e-03 1.29032263e-03 1.29032263e-03
      1.29032263e-03 1.29032263e-03 0. 1.29032263e-03 2.58064526e-03
      1.29032263e-03 1.29032263e-03 3.87096778e-03 0. 0. 2.58064526e-03
      0. 0. 1.29032263e-03 2.58064526e-03 1.29032263e-03 0.
      1.29032263e-03 1.29032263e-03 1.29032263e-03 1.29032263e-03 0.
      2.58064526e-03 0. 5.16129052e-03 1.29032263e-03 3.87096778e-03 0.
      1.29032263e-03 0. 1.29032263e-03 0. 1.29032263e-03 1.29032263e-03
      1.29032263e-03 0. 1.29032263e-03 1.29032263e-03 0. 0.
      1.29032263e-03 1.29032263e-03 0. 0. 0. 1.29032263e-03
      1.29032263e-03 0. 1.29032263e-03 1.29032263e-03 0. 1.29032263e-03
      0. 2.58064526e-03 1.29032263e-03 1.29032263e-03 0. 0. 0. 0.
      1.29032263e-03 0. 1.29032263e-03 1.29032263e-03 0. 1.29032263e-03
      3.87096778e-03 2.58064526e-03 1.29032263e-03 1.29032263e-03 0. 0.
      1.29032263e-03 1.29032263e-03 1.29032263e-03 0. 1.29032263e-03 0.
      1.29032263e-03 0. 1.29032263e-03 1.29032263e-03 2.58064526e-03
      3.87096778e-03 1.29032263e-03 0. 0. 1.29032263e-03 1.29032263e-03
      1.29032263e-03 1.29032263e-03 1.29032263e-03 0. 0. 0.
      1.29032263e-03 0. 1.29032263e-03 1.29032263e-03 0. 0.
      1.29032263e-03 1.29032263e-03 1.29032263e-03 0. 0. 1.29032263e-03
      0. 1.29032263e-03 1.29032263e-03 5.16129052e-03 1.29032263e-03 0.
      1.29032263e-03 0. 0. 7.74193555e-03 1.29032263e-03 0.
      1.29032263e-03 2.58064526e-03 1.29032263e-03 1.29032263e-03 0.
      1.29032263e-03 1.29032263e-03 1.29032263e-03 0. 1.29032263e-03
      1.29032263e-03 1.29032263e-03 3.87096778e-03 2.58064526e-03
      3.87096778e-03 0. 0. 2.58064526e-03 2.58064526e-03 5.16129052e-03
      0. 2.58064526e-03 1.29032263e-03 1.29032263e-03 0. 0.
      1.29032263e-03 1.29032263e-03 1.29032263e-03 0. 1.29032263e-03
      1.29032263e-03 2.58064526e-03 1.29032263e-03 5.16129052e-03
      1.29032263e-03 1.29032263e-03 0. 1.29032263e-03 1.29032263e-03 0.
      3.87096778e-03 1.29032263e-03 3.87096778e-03 1.29032263e-03 0.
      1.29032263e-03 1.29032263e-03 0. 1.29032263e-03 0. 0.
      1.29032263e-03 0. 2.58064526e-03 0. 1.29032263e-03 0. 0.
      1.29032263e-03 1.29032263e-03 2.58064526e-03 0. 1.29032263e-03 0.
      0. 0. 0. 0. 1.29032263e-03 0. 1.29032263e-03 1.29032263e-03
      1.29032263e-03 1.29032263e-03 2.58064526e-03 1.29032263e-03
      1.29032263e-03 0. 1.29032263e-03 0. 1.29032263e-03 1.29032263e-03
      0. 1.29032263e-03 3.87096778e-03 0. 1.29032263e-03 2.58064526e-03
      1.29032263e-03 1.29032263e-03 1.29032263e-03 1.29032263e-03 0.
      2.58064526e-03 1.29032263e-03 0. 1.29032263e-03 1.29032263e-03 0.
      0. 1.29032263e-03 1.29032263e-03 0. 1.29032263e-03 2.58064526e-03
      1.29032263e-03 0. 1.29032263e-03 2.58064526e-03 1.29032263e-03 0.
      0. 1.29032263e-03 0. 1.29032263e-03 1.29032263e-03 0.
      1.29032263e-03 1.29032263e-03 2.58064526e-03 0. 1.29032263e-03 0.
      0. 0. 0. 1.29032263e-03 1.29032263e-03 0. 1.29032263e-03
      1.29032263e-03 0. 0. 0. 1.29032263e-03 0. 0. 0. 0. 0.
      1.29032263e-03 1.29032263e-03 0. 1.29032263e-03 0. 0. 0.
      1.29032263e-03 1.29032263e-03 0. 2.58064526e-03 3.87096778e-03
      1.29032263e-03 1.29032263e-03 2.58064526e-03 0. 1.29032263e-03 0.
      1.29032263e-03 2.58064526e-03 0. 0. 0. 0. 1.29032263e-03 0. 0. 0.
      1.29032263e-03 0. 1.29032263e-03 0. 0. 1.29032263e-03
      1.29032263e-03 0. 0. 1.29032263e-03 1.29032263e-03 0.
      1.29032263e-03 0. 2.58064526e-03 0. 2.58064526e-03 1.29032263e-03
      0. 1.29032263e-03 0. 0. 0. 1.29032263e-03 2.58064526e-03 0. 0.
      1.29032263e-03 1.29032263e-03 0. 0. 0. 1.29032263e-03 0.
      1.29032263e-03 1.29032263e-03 2.58064526e-03 0. 0. 1.29032263e-03
      1.29032263e-03 2.58064526e-03 0. 1.29032263e-03 2.58064526e-03 0.
      1.29032263e-03 1.29032263e-03 1.29032263e-03 3.87096778e-03
      5.16129052e-03 0. 1.29032263e-03 0. 0. 1.29032263e-03
      1.29032263e-03 1.29032263e-03 2.58064526e-03 0. 0. 1.29032263e-03
      0. 1.29032263e-03 0. 0. 0. 1.29032263e-03 0. 0. 5.16129052e-03 0.
      0. 0. 0. 1.29032263e-03 2.58064526e-03 0. 1.29032263e-03
      2.58064526e-03 0. 1.29032263e-03 0. 0. 0. 0. 1.29032263e-03
      1.29032263e-03 0. 2.58064526e-03 1.29032263e-03 2.58064526e-03
      1.29032263e-03 0. 0. 1.29032263e-03 0. 1.29032263e-03
      1.29032263e-03 1.29032263e-03 1.29032263e-03 0. 0. 0.
      1.29032263e-03 1.29032263e-03 0. 1.29032263e-03 0. 1.29032263e-03
      1.29032263e-03 0. 0. 0. 1.29032263e-03 0. 0. 0. 0. 1.29032263e-03
      0. 0. 1.29032263e-03 0. 1.29032263e-03 1.29032263e-03
      1.29032263e-03 0. 2.58064526e-03 0. 2.58064526e-03 2.58064526e-03
      0. 1.29032263e-03 0. 0. 1.29032263e-03 0. 0. 0. 0. 2.58064526e-03
      1.29032263e-03 0. 1.29032263e-03 1.29032263e-03 0. 2.58064526e-03
      1.29032263e-03 0. 0. 0. 0. 0. 0. 1.29032263e-03 0. 1.29032263e-03
      0. 0. 1.29032263e-03 0. 0. 0. 1.29032263e-03 0. 1.29032263e-03 0.
      1.29032263e-03 0. 0. 0. 1.29032263e-03 0. 1.29032263e-03
      1.29032263e-03 2.58064526e-03 0. 0. 1.29032263e-03 1.29032263e-03
      1.29032263e-03 0. 0. 1.29032263e-03 0. 1.29032263e-03 0. 0. 0. 0.
      1.29032263e-03 0. 2.58064526e-03 0. 2.58064526e-03 1.29032263e-03
      0. 2.58064526e-03 0. 2.58064526e-03 0. 0. 0. 0. 0. 0. 0.
      1.29032263e-03 1.29032263e-03 0. 0. 0. 0. 1.29032263e-03
      1.29032263e-03 0. 0. 0. 0. 1.29032263e-03 0. 0. 0. 0.
      1.29032263e-03 0. 0. 1.29032263e-03 0. 0. 1.29032263e-03 0. 0. 0.
      0. 1.29032263e-03 3.87096778e-03 1.29032263e-03 0. 1.29032263e-03
      0. 1.29032263e-03 2.58064526e-03 0. 3.87096778e-03 1.29032263e-03
      2.58064526e-03 0. 0. 2.58064526e-03 2.58064526e-03 0.
      1.29032263e-03 1.29032263e-03 0. 0. 1.29032263e-03 0.
      1.29032263e-03 1.29032263e-03 0. 0. 0. 0. 0. 0. 1.29032263e-03 0.
      0. 1.29032263e-03 1.29032263e-03 0. 0. 0. 1.29032263e-03
      3.87096778e-03 0. 0. 0. 1.29032263e-03 0. 2.58064526e-03 0. 0.
      1.29032263e-03 0. 2.58064526e-03 0. 2.58064526e-03 2.58064526e-03
      0. 0. 0. 0. 0. 1.29032263e-03 1.29032263e-03 1.29032263e-03 0. 0.
      1.29032263e-03 1.29032263e-03 0. 1.29032263e-03 1.29032263e-03 0.
      0. 0. 2.58064526e-03 1.29032263e-03 5.16129052e-03 0.
      2.58064526e-03 6.45161327e-03 0. 1.29032263e-03 0. 0. 0.
      2.58064526e-03 3.87096778e-03 0. 2.58064526e-03 0. 0.
      3.87096778e-03 0. 0. 0. 1.29032263e-03 2.58064526e-03
      1.29032263e-03 0. 1.29032263e-03 0. 1.29032263e-03 0.
      3.87096778e-03 1.29032263e-03 0. 2.58064526e-03 5.16129052e-03 0.
      0. 1.29032263e-03 0. 3.87096778e-03 0. 1.29032263e-03 0. 0.
      1.29032263e-03 1.29032263e-03 1.29032263e-03 1.29032263e-03
      1.29032263e-03 0. 0. 1.29032263e-03 5.16129052e-03 1.29032263e-03
      1.29032263e-03 0. 2.58064526e-03 2.58064526e-03 0. 0.
      6.45161327e-03 0. 2.58064526e-03 0. 1.29032263e-03 2.58064526e-03
      0. 5.16129052e-03 1.29032263e-03 2.58064526e-03 0. 0.
      1.29032263e-03 2.58064526e-03 7.74193555e-03 0. 1.29032263e-03
      2.58064526e-03 2.58064526e-03 0. 0. 1.29032263e-03 0. 0.
      1.29032263e-03 1.29032263e-03 0. 0. 1.29032263e-03 2.58064526e-03
      0. 1.29032263e-03 3.87096778e-03 0. 0. 3.87096778e-03
      2.58064526e-03 0. 1.29032265e-02 1.29032263e-03 1.29032263e-03
      3.87096778e-03 0. 0. 0. 0. 0. 0. 0. 1.29032263e-03 1.29032263e-03
      0. 0. 0. 0. 1.29032263e-03 0. 1.29032263e-03 0. 0. 0.
      1.29032263e-03 2.58064526e-03 1.29032263e-03 0. 3.87096778e-03 0.
      3.87096778e-03 0. 2.58064526e-03 0. 3.87096778e-03 1.29032263e-03
      0. 0. 0. 2.58064526e-03 0. 1.29032263e-03 0. 0. 0. 0.
      1.29032263e-03 2.58064526e-03 1.29032263e-03 1.29032263e-03 0.
      1.29032263e-03 1.29032263e-03 0. 0. 0. 1.29032263e-03
      2.58064526e-03 0. 0. 1.29032263e-03 2.58064526e-03 1.29032263e-03
      0. 0. 1.29032263e-03 1.29032263e-03 0. 0. 0. 0. 1.29032263e-03
      1.29032263e-03 0. 1.29032263e-03 0. 0. 2.58064526e-03 0. 0.
      6.45161327e-03 0. 1.29032263e-03 0. 0. 0. 0. 0. 0. 0.
      1.29032263e-03 0. 0. 0. 0. 1.29032263e-03 0. 0. 0. 1.29032263e-03
      0. 1.29032263e-03 0. 0. 1.29032263e-03 0. 0. 1.29032263e-03
      2.58064526e-03 1.29032263e-03 2.58064526e-03 0. 0. 1.29032263e-03
      0. 0. 2.58064526e-03 0. 2.58064526e-03 0. 6.45161327e-03
      1.29032263e-03 0. 0. 0. 0. 2.58064526e-03 0. 0. 2.58064526e-03 0.
      0. 0. 1.29032263e-03 0. 1.29032263e-03 0. 2.58064526e-03 0. 0.
      2.58064526e-03 0. 0. 0. 1.29032263e-03 0. 2.58064526e-03 0.
      2.58064526e-03 0. 1.29032263e-03 0. 3.87096778e-03 6.45161327e-03
      1.29032263e-03 0. 1.29032263e-03 1.29032263e-03 0. 0.
      3.87096778e-03 0. 0. 0. 0. 3.87096778e-03 1.29032263e-03</_>
    <_>
      2.68096523e-03 5.36193047e-03 2.68096523e-03 2.68096523e-03
      2.68096523e-03 0. 0. 0. 0. 0. 0. 0. 2.14477219e-02 0. 0. 0. 0.
      2.68096523e-03 2.68096523e-03 5.36193047e-03 0. 2.68096523e-03 0.
      2.68096523e-03 2.68096523e-03 1.07238609e-02 5.36193047e-03 0. 0.
      2.68096523e-03 0. 2.68096523e-03 2.68096523e-03 2.68096523e-03
      2.68096523e-03 2.68096523e-03 2.68096523e-03 0. 2.68096523e-03
      2.68096523e-03 2.68096523e-03 2.68096523e-03 0. 0. 2.68096523e-03
      0. 2.14477219e-02 2.68096523e-03 0. 2.68096523e-03 2.68096523e-03
      5.36193047e-03 2.68096523e-03 0. 0. 2.68096523e-03 0.
      2.68096523e-03 2.68096523e-03 0. 2.68096523e-03 2.68096523e-03
      2.68096523e-03 2.68096523e-03 0. 2.68096523e-03 2.68096523e-03
      2.68096523e-03 0. 2.68096523e-03 0. 0. 2.68096523e-03
      5.36193047e-03 0. 2.68096523e-03 1.07238609e-02 0. 0. 0. 0. 0.
      2.68096523e-03 2.68096523e-03 2.68096523e-03 0. 2.68096523e-03 0.
      0. 2.68096523e-03 8.04289617e-03 0. 2.68096523e-03 0.
      2.68096523e-03 0. 0. 5.36193047e-03 0. 2.68096523e-03 0. 0. 0. 0.
      2.68096523e-03 0. 2.68096523e-03 2.68096523e-03 2.68096523e-03
      2.68096523e-03 2.68096523e-03 2.68096523e-03 2.68096523e-03
      2.68096523e-03 2.68096523e-03 2.68096523e-03 2.68096523e-03 0. 0.
      2.68096523e-03 2.68096523e-03 2.68096523e-03 2.68096523e-03 0. 0.
      2.68096523e-03 2.68096523e-03 2.68096523e-03 0. 0. 0.
      2.68096523e-03 2.68096523e-03 2.68096523e-03 5.36193047e-03
      2.68096523e-03 2.68096523e-03 2.68096523e-03 2.68096523e-03
      2.68096523e-03 0. 2.68096523e-03 0. 2.68096523e-03 0. 0.
      2.68096523e-03 8.04289617e-03 0. 0. 2.68096523e-03 0. 0.
      5.36193047e-03 5.36193047e-03 2.68096523e-03 0. 2.68096523e-03 0.
      0. 2.68096523e-03 0. 0. 2.68096523e-03 5.36193047e-03
      2.68096523e-03 0. 0. 2.68096523e-03 5.36193047e-03 0.
      2.68096523e-03 2.68096523e-03 2.68096523e-03 2.68096523e-03 0.
      2.68096523e-03 2.68096523e-03 0. 2.68096523e-03 2.68096523e-03
      2.68096523e-03 0. 0. 0. 2.68096523e-03 2.68096523e-03 0.
      2.68096523e-03 0. 0. 0. 0. 0. 2.68096523e-03 0. 5.36193047e-03 0.
      0. 0. 0. 0. 0. 0. 0. 2.68096523e-03 0. 0. 2.68096523e-03
      2.68096523e-03 0. 0. 2.68096523e-03 2.68096523e-03 2.68096523e-03
      0. 2.68096523e-03 0. 2.68096523e-03 0. 2.68096523e-03
      2.68096523e-03 0. 0. 2.68096523e-03 0. 0. 2.68096523e-03
      2.68096523e-03 2.68096523e-03 2.68096523e-03 2.68096523e-03 0. 0.
      0. 2.68096523e-03 2.68096523e-03 0. 2.68096523e-03 0. 0.
      2.68096523e-03 0. 0. 0. 0. 0. 0. 2.68096523e-03 2.68096523e-03
      8.04289617e-03 2.68096523e-03 0. 2.68096523e-03 0. 0.
      2.68096523e-03 2.68096523e-03 0. 2.68096523e-03 2.68096523e-03
      2.68096523e-03 2.68096523e-03 0. 2.68096523e-03 2.68096523e-03
      2.68096523e-03 0. 0. 2.68096523e-03 0. 5.36193047e-03
      5.36193047e-03 0. 0. 0. 0. 0. 0. 0. 5.36193047e-03 2.68096523e-03
      0. 0. 0. 2.68096523e-03 2.68096523e-03 2.68096523e-03 0.
      2.68096523e-03 2.68096523e-03 0. 0. 8.04289617e-03 2.68096523e-03
      2.68096523e-03 0. 0. 0. 0. 0. 0. 0. 0. 0. 2.68096523e-03 0. 0.
      2.68096523e-03 0. 2.68096523e-03 5.36193047e-03 0. 2.68096523e-03
      0. 2.68096523e-03 0. 0. 2.68096523e-03 0. 0. 0. 2.68096523e-03 0.
      0. 0. 0. 0. 0. 0. 0. 2.68096523e-03 0. 0. 0. 2.68096523e-03
      2.68096523e-03 0. 0. 0. 0. 0. 0. 2.68096523e-03 0. 2.68096523e-03
      2.68096523e-03 5.36193047e-03 2.68096523e-03 2.68096523e-03 0. 0.
      0. 0. 0. 0. 2.68096523e-03 2.68096523e-03 0. 0. 0. 0. 0. 0. 0.
      2.68096523e-03 0. 2.68096523e-03 5.36193047e-03 2.68096523e-03 0.
      0. 0. 0. 2.68096523e-03 2.68096523e-03 0. 0. 0. 0. 0.
      2.68096523e-03 0. 0. 0. 0. 0. 0. 0. 2.68096523e-03 0.
      2.68096523e-03 0. 0. 2.68096523e-03 2.68096523e-03 0. 0. 0. 0.
      2.68096523e-03 2.68096523e-03 0. 2.68096523e-03 0. 2.68096523e-03
      0. 2.68096523e-03 2.68096523e-03 0. 5.36193047e-03 0. 0. 0.
      2.68096523e-03 0. 2.68096523e-03 0. 2.68096523e-03 0. 0. 0.
      2.68096523e-03 0. 2.68096523e-03 0. 0. 0. 2.68096523e-03 0.
      2.68096523e-03 0. 0. 0. 2.68096523e-03 0. 0. 2.68096523e-03
      2.68096523e-03 0. 2.68096523e-03 0. 0. 0. 2.68096523e-03 0. 0. 0.
      0. 0. 0. 2.68096523e-03 2.68096523e-03 0. 0. 0. 0. 0. 0. 0.
      2.68096523e-03 0. 2.68096523e-03 2.68096523e-03 5.36193047e-03 0.
      0. 0. 0. 5.36193047e-03 2.68096523e-03 0. 0. 2.68096523e-03 0.
      2.68096523e-03 0. 0. 0. 0. 0. 0. 0. 0. 0. 2.68096523e-03
      5.36193047e-03 0. 0. 2.68096523e-03 0. 0. 0. 0. 2.68096523e-03 0.
      0. 0. 0. 0. 0. 0. 0. 0. 0. 0. 2.68096523e-03 0. 0. 0. 0. 0. 0. 0.
      0. 0. 0. 2.68096523e-03 0. 2.68096523e-03 0. 0. 0. 0. 0. 0. 0.
      2.68096523e-03 2.68096523e-03 2.68096523e-03 0. 0. 0. 0. 0. 0. 0.
      2.68096523e-03 2.68096523e-03 0. 0. 2.68096523e-03 2.68096523e-03
      0. 0. 0. 0. 0. 0. 0. 0. 0. 0. 0. 0. 0. 0. 0. 0. 0. 0.
      2.68096523e-03 2.68096523e-03 0. 0. 0. 0. 0. 0. 0. 2.68096523e-03
      0. 2.68096523e-03 2.68096523e-03 0. 0. 2.68096523e-03 0. 0. 0. 0.
      0. 0. 2.68096523e-03 0. 0. 2.68096523e-03 0. 0. 2.68096523e-03 0.
      0. 0. 0. 0. 0. 2.68096523e-03 2.68096523e-03 2.68096523e-03 0. 0.
      0. 0. 2.68096523e-03 0. 0. 0. 2.68096523e-03 2.68096523e-03
      2.68096523e-03 2.68096523e-03 2.68096523e-03 2.68096523e-03 0. 0.
      0. 0. 0. 0. 0. 0. 8.04289617e-03 0. 0. 0. 0. 0. 0. 0. 0. 0. 0. 0.
      2.68096523e-03 0. 0. 0. 0. 0. 0. 2.68096523e-03 0. 2.68096523e-03
      2.68096523e-03 0. 0. 0. 0. 0. 0. 0. 0. 0. 0. 0. 0. 5.36193047e-03
      0. 0. 0. 0. 2.68096523e-03 0. 0. 0. 2.68096523e-03 2.68096523e-03
      0. 0. 0. 0. 0. 0. 0. 0. 0. 0. 0. 0. 0. 0. 0. 2.68096523e-03 0. 0.
      0. 0. 2.68096523e-03 2.68096523e-03 0. 0. 0. 0. 2.68096523e-03 0.
      2.68096523e-03 2.68096523e-03 0. 0. 2.68096523e-03 0. 0. 0. 0. 0.
      0. 0. 0. 2.68096523e-03 0. 0. 0. 0. 0. 0. 0. 0. 0. 0. 0. 0. 0. 0.
      0. 0. 0. 0. 0. 8.04289617e-03 0. 0. 2.68096523e-03 0. 0. 0. 0. 0.
      0. 0. 0. 0. 2.68096523e-03 0. 0. 0. 0. 0. 0. 0. 0. 0. 0. 0. 0. 0.
      0. 0. 0. 0. 0. 0. 0. 0. 0. 0. 0. 0. 0. 0. 1.07238609e-02 0. 0. 0.
      0. 0. 0. 0. 0. 0. 0. 0. 2.68096523e-03 2.68096523e-03 0. 0. 0. 0.
      0. 0. 0. 0. 2.68096523e-03 0. 2.68096523e-03 0. 0. 0. 0. 0. 0.
      2.68096523e-03 0. 0. 0. 2.68096523e-03 2.68096523e-03 0. 0. 0.
      1.07238609e-02 0. 0. 0. 0. 0. 0. 0. 0. 0. 2.68096523e-03 0. 0. 0.
      0. 2.68096523e-03 0. 0. 0. 0. 0. 0. 2.68096523e-03 0. 0. 0.
      2.68096523e-03 0. 0. 0. 0. 0. 2.68096523e-03 0. 0. 0. 0. 0. 0. 0.
      0. 0. 0. 0. 0. 0. 2.68096523e-03 0. 2.68096523e-03 0. 0. 0.
      8.04289617e-03 0. 0. 0. 0. 0. 5.36193047e-03 0. 0. 0. 0. 0. 0. 0.
      0. 0. 0. 0. 0. 0. 0. 0. 2.68096523e-03 0. 0. 0. 0. 0.
      2.68096523e-03 0. 0. 0. 0. 0. 0. 0. 0. 2.68096523e-03 0. 0. 0. 0.
      2.68096523e-03 0. 0. 0. 0. 0. 2.68096523e-03 2.68096523e-03 0. 0.
      0. 0. 2.68096523e-03 0. 0. 0. 0. 2.68096523e-03 0. 0. 0. 0. 0. 0.
      0. 2.68096523e-03 0. 0. 0. 2.68096523e-03 0. 0. 0. 0. 0. 0. 0. 0.
      0. 2.68096523e-03 0. 0. 0. 0. 0. 0. 0. 0. 0. 0. 0. 0. 0. 0. 0.
      2.68096523e-03 0. 0. 0. 0. 0. 0. 0. 0. 0. 0. 0. 0. 0. 0. 0. 0. 0.
      2.68096523e-03 0. 0. 0. 0. 0. 2.68096523e-03 0. 0. 5.36193047e-03
      0. 0. 0. 0. 0. 0. 0. 0. 2.68096523e-03 2.68096523e-03 0. 0. 0. 0.</_>
    <_>
      2.49999994e-03 4.99999989e-03 2.49999994e-03 2.49999994e-03
      2.49999994e-03 0. 2.49999994e-03 0. 2.49999994e-03 0. 0. 0.
      1.49999997e-02 2.49999994e-03 0. 0. 0. 2.49999994e-03
      2.49999994e-03 2.49999994e-03 0. 2.49999994e-03 0. 0.
      2.49999994e-03 7.49999983e-03 4.99999989e-03 0. 0. 2.49999994e-03
      0. 2.49999994e-03 2.49999994e-03 2.49999994e-03 2.49999994e-03
      4.99999989e-03 2.49999994e-03 2.49999994e-03 2.49999994e-03
      2.49999994e-03 2.49999994e-03 2.49999994e-03 0. 0. 2.49999994e-03
      2.49999994e-03 1.49999997e-02 0. 0. 2.49999994e-03 2.49999994e-03
      4.99999989e-03 2.49999994e-03 0. 0. 2.49999994e-03 0.
      4.99999989e-03 2.49999994e-03 0. 2.49999994e-03 2.49999994e-03
      2.49999994e-03 2.49999994e-03 0. 2.49999994e-03 0. 0. 0.
      2.49999994e-03 0. 0. 2.49999994e-03 4.99999989e-03 0.
      2.49999994e-03 7.49999983e-03 0. 0. 0. 2.49999994e-03 0.
      2.49999994e-03 2.49999994e-03 2.49999994e-03 0. 2.49999994e-03 0.
      2.49999994e-03 2.49999994e-03 7.49999983e-03 0. 2.49999994e-03 0.
      2.49999994e-03 0. 0. 4.99999989e-03 0. 2.49999994e-03
      2.49999994e-03 0. 0. 0. 2.49999994e-03 2.49999994e-03
      2.49999994e-03 2.49999994e-03 2.49999994e-03 2.49999994e-03
      2.49999994e-03 0. 4.99999989e-03 2.49999994e-03 2.49999994e-03
      2.49999994e-03 2.49999994e-03 0. 0. 2.49999994e-03 2.49999994e-03
      2.49999994e-03 2.49999994e-03 0. 0. 2.49999994e-03 2.49999994e-03
      2.49999994e-03 0. 0. 0. 2.49999994e-03 2.49999994e-03
      2.49999994e-03 4.99999989e-03 2.49999994e-03 0. 2.49999994e-03
      2.49999994e-03 2.49999994e-03 2.49999994e-03 0. 0. 2.49999994e-03
      0. 0. 2.49999994e-03 7.49999983e-03 0. 0. 2.49999994e-03 0. 0.
      2.49999994e-03 4.99999989e-03 2.49999994e-03 2.49999994e-03
      2.49999994e-03 2.49999994e-03 2.49999994e-03 2.49999994e-03 0. 0.
      0. 4.99999989e-03 2.49999994e-03 0. 0. 2.49999994e-03
      2.49999994e-03 0. 0. 0. 2.49999994e-03 2.49999994e-03 0.
      2.49999994e-03 2.49999994e-03 0. 0. 2.49999994e-03 2.49999994e-03
      0. 0. 0. 2.49999994e-03 2.49999994e-03 0. 2.49999994e-03 0. 0. 0.
      0. 0. 2.49999994e-03 0. 2.49999994e-03 0. 2.49999994e-03 0. 0. 0.
      0. 0. 0. 2.49999994e-03 0. 0. 0. 0. 0. 0. 0. 2.49999994e-03 0. 0.
      2.49999994e-03 0. 2.49999994e-03 0. 2.49999994e-03 2.49999994e-03
      0. 2.49999994e-03 2.49999994e-03 0. 0. 2.49999994e-03
      2.49999994e-03 2.49999994e-03 2.49999994e-03 2.49999994e-03
      2.49999994e-03 0. 0. 2.49999994e-03 2.49999994e-03 0.
      2.49999994e-03 0. 0. 2.49999994e-03 2.49999994e-03 2.49999994e-03
      2.49999994e-03 0. 2.49999994e-03 0. 2.49999994e-03 2.49999994e-03
      9.99999978e-03 2.49999994e-03 0. 0. 0. 0. 0. 2.49999994e-03 0.
      2.49999994e-03 2.49999994e-03 2.49999994e-03 2.49999994e-03 0.
      2.49999994e-03 2.49999994e-03 0. 0. 0. 2.49999994e-03 0.
      4.99999989e-03 4.99999989e-03 0. 2.49999994e-03 0. 0. 0. 0.
      2.49999994e-03 4.99999989e-03 2.49999994e-03 7.49999983e-03 0. 0.
      2.49999994e-03 2.49999994e-03 2.49999994e-03 0. 2.49999994e-03 0.
      0. 0. 0. 2.49999994e-03 0. 0. 0. 2.49999994e-03 0. 0. 0. 0. 0. 0.
      2.49999994e-03 0. 0. 2.49999994e-03 0. 0. 2.49999994e-03
      2.49999994e-03 2.49999994e-03 0. 2.49999994e-03 0. 0.
      2.49999994e-03 0. 0. 0. 2.49999994e-03 0. 0. 0. 0. 0. 0. 0. 0.
      2.49999994e-03 0. 0. 0. 2.49999994e-03 2.49999994e-03 0. 0.
      2.49999994e-03 2.49999994e-03 2.49999994e-03 4.99999989e-03
      2.49999994e-03 0. 2.49999994e-03 2.49999994e-03 0. 2.49999994e-03
      4.99999989e-03 0. 0. 0. 0. 0. 0. 2.49999994e-03 2.49999994e-03 0.
      0. 0. 0. 0. 0. 0. 2.49999994e-03 0. 2.49999994e-03 2.49999994e-03
      2.49999994e-03 0. 0. 0. 0. 2.49999994e-03 0. 0. 0. 0. 0. 0.
      2.49999994e-03 0. 0. 0. 0. 0. 2.49999994e-03 0. 2.49999994e-03 0.
      0. 0. 2.49999994e-03 2.49999994e-03 0. 0. 2.49999994e-03 0. 0.
      2.49999994e-03 2.49999994e-03 0. 2.49999994e-03 0. 0. 0.
      2.49999994e-03 2.49999994e-03 0. 4.99999989e-03 0. 0. 0.
      2.49999994e-03 0. 2.49999994e-03 2.49999994e-03 2.49999994e-03 0.
      2.49999994e-03 0. 0. 2.49999994e-03 2.49999994e-03 0. 0. 0.
      2.49999994e-03 0. 2.49999994e-03 0. 0. 0. 0. 0. 0. 2.49999994e-03
      2.49999994e-03 2.49999994e-03 2.49999994e-03 2.49999994e-03 0. 0.
      2.49999994e-03 0. 0. 0. 0. 0. 0. 2.49999994e-03 0. 0. 0. 0.
      2.49999994e-03 0. 0. 2.49999994e-03 4.99999989e-03 0.
      2.49999994e-03 2.49999994e-03 4.99999989e-03 0. 0. 2.49999994e-03
      0. 4.99999989e-03 2.49999994e-03 0. 0. 2.49999994e-03 0.
      2.49999994e-03 0. 0. 0. 0. 0. 0. 0. 0. 0. 0. 2.49999994e-03 0. 0.
      2.49999994e-03 0. 0. 0. 0. 4.99999989e-03 0. 0. 0. 0. 0. 0. 0.
      4.99999989e-03 0. 2.49999994e-03 0. 2.49999994e-03 0. 0. 0. 0. 0.
      0. 0. 0. 0. 0. 2.49999994e-03 0. 2.49999994e-03 0. 0. 0.
      2.49999994e-03 0. 0. 0. 2.49999994e-03 2.49999994e-03 0. 0. 0. 0.
      0. 0. 2.49999994e-03 0. 2.49999994e-03 2.49999994e-03 0. 0. 0.
      2.49999994e-03 0. 0. 0. 0. 2.49999994e-03 0. 0. 0. 0.
      2.49999994e-03 0. 0. 0. 0. 0. 0. 0. 0. 2.49999994e-03 0. 0. 0. 0.
      0. 0. 0. 0. 2.49999994e-03 2.49999994e-03 2.49999994e-03
      2.49999994e-03 0. 0. 2.49999994e-03 0. 0. 0. 4.99999989e-03 0. 0.
      2.49999994e-03 0. 0. 2.49999994e-03 0. 0. 7.49999983e-03 0. 0. 0.
      0. 0. 0. 2.49999994e-03 0. 0. 0. 0. 0. 0. 2.49999994e-03 0.
      2.49999994e-03 0. 2.49999994e-03 2.49999994e-03 2.49999994e-03
      2.49999994e-03 2.49999994e-03 2.49999994e-03 0. 0. 0. 0. 0. 0. 0.
      0. 4.99999989e-03 2.49999994e-03 0. 0. 2.49999994e-03
      7.49999983e-03 0. 0. 0. 0. 0. 0. 2.49999994e-03 0. 0.
      2.49999994e-03 0. 0. 0. 0. 0. 2.49999994e-03 2.49999994e-03 0. 0.
      0. 0. 0. 2.49999994e-03 0. 0. 0. 0. 0. 0. 0. 0. 2.49999994e-03
      2.49999994e-03 0. 0. 0. 0. 0. 4.99999989e-03 0. 0. 2.49999994e-03
      0. 0. 0. 0. 0. 0. 0. 0. 0. 0. 0. 0. 0. 2.49999994e-03 0. 0. 0. 0.
      2.49999994e-03 2.49999994e-03 0. 0. 0. 0. 0. 0. 0. 0. 0. 0.
      2.49999994e-03 0. 0. 0. 0. 0. 0. 0. 0. 2.49999994e-03 0. 0. 0. 0.
      0. 0. 0. 0. 0. 0. 0. 0. 2.49999994e-03 2.49999994e-03 0. 0. 0. 0.
      0. 0. 0. 0. 0. 0. 0. 0. 4.99999989e-03 0. 0. 2.49999994e-03 0. 0.
      0. 0. 0. 4.99999989e-03 0. 0. 0. 0. 0. 2.49999994e-03 0. 0. 0. 0.
      0. 0. 0. 0. 0. 0. 0. 0. 0. 0. 2.49999994e-03 0. 0. 0.
      7.49999983e-03 0. 0. 0. 0. 0. 0. 0. 0. 0. 2.49999994e-03 0.
      2.49999994e-03 2.49999994e-03 2.49999994e-03 0. 0. 0. 0. 0. 0.
      2.49999994e-03 0. 0. 4.99999989e-03 2.49999994e-03 0.
      4.99999989e-03 0. 0. 0. 2.49999994e-03 0. 0. 0. 2.49999994e-03 0.
      0. 0. 0. 7.49999983e-03 0. 0. 0. 0. 0. 0. 0. 0. 0. 0. 0. 0. 0. 0.
      0. 0. 0. 2.49999994e-03 0. 0. 0. 2.49999994e-03 0. 0. 0. 0. 0. 0.
      2.49999994e-03 0. 0. 0. 0. 0. 0. 0. 2.49999994e-03 0. 0. 0. 0. 0.
      0. 0. 0. 0. 0. 2.49999994e-03 0. 0. 0. 4.99999989e-03 0. 0. 0. 0.
      0. 7.49999983e-03 0. 0. 0. 0. 0. 2.49999994e-03 0. 0. 0. 0. 0. 0.
      2.49999994e-03 0. 0. 0. 0. 2.49999994e-03 0. 0. 0. 2.49999994e-03
      0. 0. 0. 0. 0. 0. 0. 0. 4.99999989e-03 0. 0. 0. 0. 2.49999994e-03
      0. 0. 0. 0. 0. 0. 2.49999994e-03 0. 0. 0. 0. 4.99999989e-03 0. 0.
      0. 0. 0. 0. 0. 0. 0. 2.49999994e-03 7.49999983e-03 0.
      2.49999994e-03 0. 0. 0. 0. 0. 7.49999983e-03 0. 0. 0. 0. 0. 0. 0.
      0. 0. 0. 0. 0. 0. 0. 0. 0. 0. 0. 0. 0. 0. 0. 0. 0. 0. 0. 0. 0. 0.
      0. 0. 0. 0. 0. 0. 0. 0. 2.49999994e-03 0. 0. 0. 2.49999994e-03 0.
      0. 0. 0. 0. 0. 0. 0. 4.99999989e-03 2.49999994e-03 0. 0.
      2.49999994e-03 0. 0. 0. 2.49999994e-03 2.49999994e-03
      2.49999994e-03 0. 0. 0. 0.</_>
    <_>
      1.72117038e-03 5.16351126e-03 5.16351126e-03 3.44234076e-03
      1.72117038e-03 0. 0. 0. 0. 1.72117038e-03 0. 0. 6.88468153e-03 0.
      0. 0. 0. 1.72117038e-03 1.72117038e-03 1.72117038e-03 0.
      3.44234076e-03 0. 0. 1.72117038e-03 3.44234076e-03 6.88468153e-03
      0. 0. 1.72117038e-03 0. 1.72117038e-03 1.72117038e-03 0.
      1.72117038e-03 0. 1.72117038e-03 0. 1.72117038e-03 1.72117038e-03
      1.72117038e-03 1.72117038e-03 3.44234076e-03 0. 1.72117038e-03
      1.72117038e-03 6.88468153e-03 0. 0. 1.72117038e-03 1.72117038e-03
      3.44234076e-03 0. 0. 0. 1.72117038e-03 1.72117038e-03
      1.72117038e-03 3.44234076e-03 1.72117038e-03 1.72117038e-03
      1.72117038e-03 1.72117038e-03 1.72117038e-03 0. 1.72117038e-03 0.
      0. 1.72117038e-03 1.72117038e-03 0. 0. 1.72117038e-03 0. 0.
      1.72117038e-03 3.44234076e-03 0. 1.72117038e-03 0. 1.72117038e-03
      0. 1.72117038e-03 1.72117038e-03 1.72117038e-03 0. 1.72117038e-03
      0. 0. 1.72117038e-03 6.88468153e-03 0. 1.72117038e-03 0.
      1.72117038e-03 0. 8.60585179e-03 3.44234076e-03 0. 1.72117038e-03
      0. 1.72117038e-03 0. 0. 1.72117038e-03 0. 1.72117038e-03
      1.72117038e-03 5.16351126e-03 1.72117038e-03 1.72117038e-03 0. 0.
      1.72117038e-03 0. 1.72117038e-03 1.72117038e-03 0. 0.
      1.72117038e-03 1.72117038e-03 1.72117038e-03 1.72117038e-03 0. 0.
      1.72117038e-03 1.72117038e-03 1.72117038e-03 1.72117038e-03 0.
      1.72117038e-03 1.72117038e-03 1.72117038e-03 1.72117038e-03
      5.16351126e-03 1.72117038e-03 0. 1.72117038e-03 1.72117038e-03
      1.72117038e-03 0. 1.72117038e-03 0. 1.72117038e-03 0.
      3.44234076e-03 1.72117038e-03 5.16351126e-03 0. 1.72117038e-03
      1.72117038e-03 0. 0. 1.72117038e-03 3.44234076e-03 1.72117038e-03
      0. 1.72117038e-03 0. 0. 1.72117038e-03 6.88468153e-03
      1.72117038e-03 0. 6.88468153e-03 1.72117038e-03 0. 0.
      1.72117038e-03 1.72117038e-03 0. 0. 0. 1.72117038e-03
      1.72117038e-03 0. 1.72117038e-03 1.72117038e-03 0. 0.
      1.72117038e-03 1.72117038e-03 0. 0. 0. 1.72117038e-03
      1.72117038e-03 0. 1.72117038e-03 0. 0. 0. 0. 0. 1.72117038e-03 0.
      1.72117038e-03 0. 0. 0. 0. 0. 1.72117038e-03 0. 1.72117038e-03
      1.72117038e-03 1.72117038e-03 0. 0. 0. 1.72117038e-03 0.
      1.72117038e-03 1.72117038e-03 1.72117038e-03 0. 1.72117038e-03 0.
      1.72117038e-03 0. 1.72117038e-03 1.72117038e-03 0. 0.
      1.72117038e-03 0. 0. 1.72117038e-03 1.72117038e-03 3.44234076e-03
      1.72117038e-03 1.72117038e-03 0. 0. 0. 1.72117038e-03
      1.72117038e-03 0. 1.72117038e-03 0. 0. 1.72117038e-03 0. 0. 0.
      1.72117038e-03 1.72117038e-03 1.72117038e-03 1.72117038e-03
      1.72117038e-03 6.88468153e-03 1.72117038e-03 0. 0. 5.16351126e-03
      0. 0. 1.72117038e-03 0. 1.72117038e-03 1.72117038e-03
      1.72117038e-03 1.72117038e-03 0. 1.72117038e-03 1.72117038e-03
      1.72117038e-03 0. 0. 1.72117038e-03 0. 3.44234076e-03
      3.44234076e-03 0. 0. 0. 0. 0. 1.72117038e-03 0. 3.44234076e-03
      1.72117038e-03 0. 1.72117038e-03 0. 1.72117038e-03 0.
      1.72117038e-03 0. 1.72117038e-03 0. 0. 3.44234076e-03
      1.72117038e-03 1.72117038e-03 1.72117038e-03 0. 1.72117038e-03 0.
      0. 0. 0. 0. 3.44234076e-03 3.44234076e-03 1.72117038e-03 0. 0.
      1.72117038e-03 0. 0. 1.72117038e-03 0. 1.72117038e-03 0.
      1.72117038e-03 0. 0. 1.72117038e-03 1.72117038e-03 0. 0.
      1.72117038e-03 0. 1.72117038e-03 0. 0. 1.72117038e-03 0. 0.
      1.72117038e-03 1.72117038e-03 1.72117038e-03 0. 0. 1.72117038e-03
      1.72117038e-03 0. 0. 0. 1.72117038e-03 1.72117038e-03 0.
      1.72117038e-03 1.72117038e-03 1.72117038e-03 1.72117038e-03
      8.60585179e-03 1.72117038e-03 3.44234076e-03 0. 0. 6.88468153e-03
      0. 8.60585179e-03 1.72117038e-03 1.72117038e-03 1.72117038e-03 0.
      1.72117038e-03 5.16351126e-03 0. 0. 0. 3.44234076e-03
      1.72117038e-03 1.72117038e-03 1.72117038e-03 1.72117038e-03
      1.72117038e-03 0. 0. 0. 0. 1.72117038e-03 1.72117038e-03
      1.72117038e-03 0. 0. 0. 0. 1.72117038e-03 0. 3.44234076e-03 0. 0.
      0. 1.72117038e-03 0. 1.72117038e-03 0. 1.72117038e-03 0. 0.
      1.72117038e-03 0. 1.72117038e-03 0. 0. 0. 1.72117038e-03
      1.72117038e-03 0. 1.72117038e-03 0. 5.16351126e-03 0.
      1.72117038e-03 1.72117038e-03 0. 3.44234076e-03 0. 1.72117038e-03
      0. 1.72117038e-03 0. 1.72117038e-03 0. 1.72117038e-03
      3.44234076e-03 0. 0. 0. 0. 1.72117038e-03 0. 3.44234076e-03 0.
      1.72117038e-03 0. 1.72117038e-03 0. 0. 0. 6.88468153e-03 0.
      3.44234076e-03 1.72117038e-03 3.44234076e-03 1.72117038e-03
      1.72117038e-03 1.72117038e-03 0. 1.72117038e-03 1.72117038e-03 0.
      0. 0. 0. 0. 0. 1.72117038e-03 0. 1.72117038e-03 0. 0. 0.
      1.72117038e-03 0. 0. 1.72117038e-03 0. 1.72117038e-03 0.
      3.44234076e-03 0. 0. 1.72117038e-03 0. 3.44234076e-03
      1.72117038e-03 0. 0. 0. 0. 1.72117038e-03 0. 3.44234076e-03 0. 0.
      0. 0. 0. 0. 0. 1.72117038e-03 0. 5.16351126e-03 0. 1.72117038e-03
      0. 0. 0. 5.16351126e-03 0. 1.72117038e-03 1.72117038e-03 0.
      1.72117038e-03 0. 0. 0. 5.16351126e-03 0. 0. 0. 1.72117038e-03 0.
      0. 0. 0. 1.72117038e-03 0. 0. 0. 0. 0. 1.72117038e-03 0. 0.
      1.72117038e-03 0. 0. 1.72117038e-03 1.72117038e-03 0. 0.
      1.72117038e-03 3.44234076e-03 0. 0. 1.72117038e-03 0. 0.
      1.72117038e-03 0. 0. 1.72117038e-03 1.72117038e-03 0. 0. 0.
      1.72117038e-03 0. 0. 0. 0. 1.72117038e-03 0. 0. 0. 0.
      1.72117038e-03 0. 0. 0. 0. 0. 0. 0. 1.72117038e-03 1.72117038e-03
      0. 0. 0. 5.16351126e-03 1.72117038e-03 1.72117038e-03 0. 0.
      1.72117038e-03 1.72117038e-03 1.72117038e-03 1.72117038e-03 0. 0.
      3.44234076e-03 0. 0. 0. 0. 1.72117038e-03 0. 1.72117038e-03
      1.72117038e-03 0. 0. 0. 0. 0. 0. 0. 3.44234076e-03 0.
      1.72117038e-03 1.72117038e-03 1.72117038e-03 3.44234076e-03 0. 0.
      3.44234076e-03 0. 0. 0. 0. 1.72117038e-03 0. 1.72117038e-03
      1.72117038e-03 1.72117038e-03 1.72117038e-03 0. 1.72117038e-03 0.
      0. 0. 0. 1.72117038e-03 1.72117038e-03 0. 0. 0. 0. 0. 0.
      1.72117038e-03 0. 0. 1.72117038e-03 1.72117038e-03 0.
      3.44234076e-03 0. 0. 0. 0. 1.72117038e-03 0. 0. 0. 0.
      1.72117038e-03 1.72117038e-03 1.72117038e-03 0. 1.72117038e-03 0.
      1.72117038e-03 1.72117038e-03 0. 1.72117038e-03 0. 0.
      1.72117038e-03 0. 3.44234076e-03 0. 0. 3.44234076e-03 0. 0.
      1.72117038e-03 0. 0. 0. 1.72117038e-03 1.72117038e-03
      1.72117038e-03 0. 0. 1.72117038e-03 3.44234076e-03 1.72117038e-03
      1.72117038e-03 0. 0. 0. 0. 1.72117038e-03 0. 0. 0. 1.72117038e-03
      1.72117038e-03 3.44234076e-03 0. 0. 1.72117038e-03 1.72117038e-03
      0. 0. 0. 0. 0. 0. 1.72117038e-03 1.72117038e-03 0. 1.72117038e-03
      1.72117038e-03 1.72117038e-03 6.88468153e-03 1.72117038e-03 0. 0.
      0. 0. 0. 1.72117038e-03 0. 0. 0. 0. 0. 1.72117038e-03 0. 0.
      1.72117038e-03 0. 0. 0. 1.72117038e-03 0. 1.72117038e-03 0.
      3.44234076e-03 1.72117038e-03 1.72117038e-03 0. 0. 1.72117038e-03
      0. 0. 0. 0. 1.72117038e-03 0. 0. 1.72117038e-03 1.72117038e-03 0.
      1.72117038e-03 0. 0. 0. 0. 0. 0. 5.16351126e-03 1.37693631e-02 0.
      0. 3.44234076e-03 0. 0. 1.72117038e-03 0. 0. 0. 5.16351126e-03
      1.72117038e-03 0. 0. 0. 0. 0. 0. 0. 0. 3.44234076e-03 0. 0.
      5.16351126e-03 1.72117038e-03 0. 0. 0. 0. 1.72117038e-03 0. 0.
      1.72117038e-03 1.72117038e-03 1.72117038e-03 0. 5.16351126e-03 0.
      1.72117038e-03 0. 0. 5.16351126e-03 1.72117038e-03 0.
      1.72117038e-03 0. 0. 0. 0. 0. 1.72117038e-03 1.72117038e-03 0. 0.
      0. 1.72117038e-03 1.72117038e-03 1.72117038e-03 3.44234076e-03 0.
      3.44234076e-03 0. 0. 0. 0. 0. 0. 1.72117038e-03 0. 0.
      1.72117038e-03 0. 0. 0. 0. 0. 0. 0. 3.44234076e-03 0.
      1.72117038e-03 0. 3.44234076e-03 0. 0. 0. 0. 1.72117038e-03 0. 0.
      0. 0. 0. 0. 0. 0. 0. 1.72117038e-03 0. 0. 3.44234076e-03 0. 0. 0.
      0. 0. 0. 1.72117038e-03 3.44234076e-03 0. 0. 0. 0. 5.16351126e-03
      0. 0. 0. 1.72117038e-03 5.16351126e-03 0. 1.72117038e-03
      1.72117038e-03 0. 1.72117038e-03 3.44234076e-03 0. 0. 0. 0.
      1.72117038e-03 0. 1.72117038e-03 1.72117038e-03 0. 0.
      1.72117038e-03 6.88468153e-03 0. 0. 0. 1.72117038e-03
      1.72117038e-03 0. 0. 0. 0. 1.72117038e-03 0. 0. 1.72117038e-03
      1.72117038e-03 0. 0. 0. 0. 0. 0. 0. 0. 0. 0. 5.16351126e-03 0. 0.
      0. 0. 1.72117038e-03 3.44234076e-03 0. 0. 0. 0. 0. 1.72117038e-03
      1.72117038e-03 0. 3.44234076e-03 0. 0. 1.72117038e-03
      1.72117038e-03 0. 1.72117038e-03 0. 0. 0. 0. 0. 0. 0.
      1.72117038e-03 0. 0. 3.44234076e-03 1.72117038e-03 0.
      1.72117038e-03 0. 0. 0. 0. 0. 0. 0. 0. 0. 0. 0. 1.72117038e-03
      1.72117038e-03 0. 1.72117038e-03 0. 0. 0. 0. 1.72117038e-03 0.
      3.44234076e-03 1.72117038e-03 0. 0. 1.72117038e-03 0. 0.
      1.72117038e-03 0. 0. 1.72117038e-03 0. 0. 0. 0. 1.72117038e-03 0.
      0. 5.16351126e-03 1.72117038e-03 0. 1.72117038e-03 1.72117038e-03
      0. 1.72117038e-03 3.44234076e-03 0. 0. 1.72117038e-03
      1.72117038e-03 0. 0. 0.</_>
    <_>
      2.29357788e-03 4.58715577e-03 2.29357788e-03 2.29357788e-03
      2.29357788e-03 0. 0. 2.29357788e-03 2.29357788e-03 2.29357788e-03
      0. 0. 9.17431153e-03 0. 0. 0. 2.29357788e-03 2.29357788e-03
      4.58715577e-03 4.58715577e-03 0. 2.29357788e-03 0. 0.
      2.29357788e-03 4.58715577e-03 4.58715577e-03 2.29357788e-03 0.
      2.29357788e-03 0. 2.29357788e-03 2.29357788e-03 0. 2.29357788e-03
      2.29357788e-03 2.29357788e-03 2.29357788e-03 2.29357788e-03
      2.29357788e-03 2.29357788e-03 2.29357788e-03 0. 0. 2.29357788e-03
      2.29357788e-03 9.17431153e-03 0. 2.29357788e-03 4.58715577e-03
      2.29357788e-03 4.58715577e-03 2.29357788e-03 0. 0. 2.29357788e-03
      0. 2.29357788e-03 2.29357788e-03 0. 2.29357788e-03 2.29357788e-03
      2.29357788e-03 2.29357788e-03 0. 2.29357788e-03 0. 0. 0.
      2.29357788e-03 0. 0. 2.29357788e-03 0. 0. 2.29357788e-03
      4.58715577e-03 4.58715577e-03 0. 0. 0. 0. 2.29357788e-03
      2.29357788e-03 2.29357788e-03 0. 2.29357788e-03 0. 2.29357788e-03
      2.29357788e-03 6.88073365e-03 0. 2.29357788e-03 0. 2.29357788e-03
      0. 0. 2.29357788e-03 0. 4.58715577e-03 2.29357788e-03 0. 0. 0.
      2.29357788e-03 2.29357788e-03 2.29357788e-03 2.29357788e-03
      2.29357788e-03 2.29357788e-03 2.29357788e-03 0. 2.29357788e-03
      2.29357788e-03 0. 2.29357788e-03 2.29357788e-03 0. 0.
      2.29357788e-03 2.29357788e-03 2.29357788e-03 2.29357788e-03 0.
      2.29357788e-03 2.29357788e-03 2.29357788e-03 2.29357788e-03
      2.29357788e-03 0. 0. 2.29357788e-03 2.29357788e-03 2.29357788e-03
      2.29357788e-03 2.29357788e-03 0. 2.29357788e-03 2.29357788e-03
      2.29357788e-03 0. 0. 0. 2.29357788e-03 2.29357788e-03 0.
      2.29357788e-03 9.17431153e-03 0. 2.29357788e-03 4.58715577e-03 0.
      2.29357788e-03 2.29357788e-03 4.58715577e-03 2.29357788e-03
      2.29357788e-03 2.29357788e-03 0. 2.29357788e-03 2.29357788e-03 0.
      0. 0. 4.58715577e-03 2.29357788e-03 0. 0. 2.29357788e-03
      2.29357788e-03 0. 0. 0. 2.29357788e-03 2.29357788e-03
      2.29357788e-03 2.29357788e-03 2.29357788e-03 0. 0. 2.29357788e-03
      2.29357788e-03 2.29357788e-03 0. 0. 2.29357788e-03 2.29357788e-03
      0. 2.29357788e-03 0. 0. 2.29357788e-03 2.29357788e-03 0.
      2.29357788e-03 0. 2.29357788e-03 0. 2.29357788e-03 0. 0. 0.
      2.29357788e-03 0. 0. 2.29357788e-03 0. 0. 2.29357788e-03 0.
      2.29357788e-03 0. 2.29357788e-03 2.29357788e-03 0. 0.
      2.29357788e-03 0. 2.29357788e-03 0. 2.29357788e-03 2.29357788e-03
      0. 0. 2.29357788e-03 0. 0. 2.29357788e-03 2.29357788e-03
      2.29357788e-03 2.29357788e-03 2.29357788e-03 0. 0. 2.29357788e-03
      2.29357788e-03 2.29357788e-03 0. 2.29357788e-03 0. 0.
      2.29357788e-03 0. 4.58715577e-03 2.29357788e-03 0. 0. 0.
      2.29357788e-03 2.29357788e-03 9.17431153e-03 2.29357788e-03 0. 0.
      0. 0. 0. 0. 0. 2.29357788e-03 2.29357788e-03 2.29357788e-03
      2.29357788e-03 0. 2.29357788e-03 2.29357788e-03 2.29357788e-03 0.
      0. 2.29357788e-03 0. 4.58715577e-03 4.58715577e-03 0.
      2.29357788e-03 4.58715577e-03 0. 0. 0. 0. 4.58715577e-03
      2.29357788e-03 2.29357788e-03 0. 0. 2.29357788e-03 1.14678890e-02
      2.29357788e-03 2.29357788e-03 2.29357788e-03 0. 2.29357788e-03 0.
      0. 2.29357788e-03 2.29357788e-03 0. 0. 0. 4.58715577e-03 0. 0. 0.
      0. 2.29357788e-03 2.29357788e-03 2.29357788e-03 0. 2.29357788e-03
      0. 2.29357788e-03 2.29357788e-03 0. 2.29357788e-03 0.
      2.29357788e-03 0. 0. 2.29357788e-03 0. 2.29357788e-03 0.
      2.29357788e-03 0. 0. 0. 0. 0. 0. 0. 0. 2.29357788e-03 0. 0. 0.
      2.29357788e-03 2.29357788e-03 0. 0. 2.29357788e-03 2.29357788e-03
      0. 0. 2.29357788e-03 0. 0. 2.29357788e-03 0. 2.29357788e-03
      2.29357788e-03 0. 0. 0. 0. 2.29357788e-03 0. 2.29357788e-03
      2.29357788e-03 0. 1.14678890e-02 0. 0. 0. 0. 0. 2.29357788e-03
      2.29357788e-03 2.29357788e-03 2.29357788e-03 2.29357788e-03 0. 0.
      0. 2.29357788e-03 2.29357788e-03 2.29357788e-03 0. 0. 0. 0.
      2.29357788e-03 2.29357788e-03 0. 0. 2.29357788e-03 2.29357788e-03
      0. 0. 0. 2.29357788e-03 0. 0. 0. 0. 2.29357788e-03 0. 0. 0. 0. 0.
      2.29357788e-03 2.29357788e-03 0. 2.29357788e-03 0. 0.
      2.29357788e-03 2.29357788e-03 2.29357788e-03 0. 4.58715577e-03 0.
      2.29357788e-03 0. 2.29357788e-03 0. 2.29357788e-03 0.
      2.29357788e-03 0. 0. 0. 0. 0. 2.29357788e-03 0. 0. 0.
      2.29357788e-03 0. 2.29357788e-03 0. 0. 0. 4.58715577e-03 0. 0.
      2.29357788e-03 2.29357788e-03 0. 2.29357788e-03 2.29357788e-03 0.
      2.29357788e-03 2.29357788e-03 0. 0. 2.29357788e-03 2.29357788e-03
      0. 0. 2.29357788e-03 6.88073365e-03 0. 0. 0. 2.29357788e-03 0. 0.
      2.29357788e-03 2.29357788e-03 0. 2.29357788e-03 0. 4.58715577e-03
      0. 0. 0. 0. 4.58715577e-03 0. 0. 0. 0. 0. 2.29357788e-03 0. 0. 0.
      0. 2.29357788e-03 0. 0. 0. 0. 2.29357788e-03 2.29357788e-03 0. 0.
      2.29357788e-03 2.29357788e-03 0. 0. 0. 0. 2.29357788e-03 0. 0. 0.
      0. 2.29357788e-03 0. 0. 0. 0. 0. 2.29357788e-03 0. 0. 0.
      4.58715577e-03 0. 2.29357788e-03 0. 0. 0. 0. 4.58715577e-03 0. 0.
      0. 0. 0. 2.29357788e-03 0. 6.88073365e-03 0. 2.29357788e-03
      2.29357788e-03 0. 0. 0. 0. 0. 2.29357788e-03 0. 0. 2.29357788e-03
      2.29357788e-03 0. 0. 4.58715577e-03 2.29357788e-03 0.
      4.58715577e-03 0. 0. 0. 0. 0. 0. 0. 2.29357788e-03 0. 0. 0.
      1.14678890e-02 0. 0. 0. 0. 4.58715577e-03 0. 2.29357788e-03 0. 0.
      2.29357788e-03 2.29357788e-03 0. 0. 2.29357788e-03 0.
      2.29357788e-03 2.29357788e-03 0. 0. 2.29357788e-03 0.
      4.58715577e-03 0. 0. 0. 0. 2.29357788e-03 0. 2.29357788e-03 0. 0.
      0. 0. 0. 0. 2.29357788e-03 0. 0. 0. 2.29357788e-03 0. 0. 0. 0. 0.
      0. 0. 0. 2.29357788e-03 0. 2.29357788e-03 2.29357788e-03
      2.29357788e-03 2.29357788e-03 2.29357788e-03 2.29357788e-03 0. 0.
      0. 0. 0. 0. 0. 0. 2.29357788e-03 0. 2.29357788e-03 0. 0. 0. 0. 0.
      0. 2.29357788e-03 0. 0. 0. 0. 0. 2.29357788e-03 0. 0. 0.
      4.58715577e-03 0. 4.58715577e-03 2.29357788e-03 0. 0. 0.
      2.29357788e-03 0. 2.29357788e-03 0. 0. 0. 2.29357788e-03
      2.29357788e-03 0. 0. 0. 0. 0. 0. 0. 0. 0. 0. 0. 0. 0. 0. 0. 0. 0.
      0. 0. 0. 0. 2.29357788e-03 2.29357788e-03 0. 0. 0. 0.
      2.29357788e-03 0. 2.29357788e-03 0. 0. 2.29357788e-03
      2.29357788e-03 0. 0. 0. 0. 0. 0. 2.29357788e-03 0. 0. 0. 0.
      2.29357788e-03 4.58715577e-03 0. 2.29357788e-03 0. 0. 0. 0.
      2.29357788e-03 0. 0. 0. 0. 0. 0. 0. 0. 0. 0. 0. 0. 0.
      2.29357788e-03 2.29357788e-03 0. 0. 0. 0. 0. 0. 0. 0. 0. 0. 0.
      2.29357788e-03 2.29357788e-03 0. 4.58715577e-03 0. 0. 0. 0. 0. 0.
      0. 0. 0. 0. 0. 0. 0. 2.29357788e-03 0. 0. 0. 2.29357788e-03 0. 0.
      0. 0. 4.58715577e-03 0. 0. 0. 0. 0. 2.29357788e-03 0.
      4.58715577e-03 0. 0. 0. 0. 0. 0. 0. 2.29357788e-03 2.29357788e-03
      0. 0. 2.29357788e-03 2.29357788e-03 0. 0. 0. 0. 0. 2.29357788e-03
      0. 0. 2.29357788e-03 0. 0. 0. 0. 4.58715577e-03 0. 2.29357788e-03
      2.29357788e-03 2.29357788e-03 0. 0. 0. 2.29357788e-03 0. 0. 0. 0.
      4.58715577e-03 0. 2.29357788e-03 0. 0. 0. 0. 2.29357788e-03
      2.29357788e-03 0. 0. 0. 0. 0. 6.88073365e-03 0. 2.29357788e-03 0.
      0. 0. 0. 0. 0. 0. 0. 0. 0. 0. 0. 0. 2.29357788e-03 0. 0. 0. 0. 0.
      2.29357788e-03 0. 2.29357788e-03 0. 0. 0. 0. 0. 0. 0. 0.
      2.29357788e-03 2.29357788e-03 4.58715577e-03 0. 2.29357788e-03 0.
      0. 0. 0. 0. 0. 6.88073365e-03 0. 0. 0. 0. 0. 0. 0. 0. 0. 0. 0. 0.
      0. 2.29357788e-03 0. 0. 0. 0. 0. 0. 0. 2.29357788e-03 0. 0. 0. 0.
      0. 0. 0. 0. 2.29357788e-03 0. 0. 0. 0. 0. 0. 0. 0. 0. 0. 0. 0.
      2.29357788e-03 0. 0. 0. 2.29357788e-03 0. 0. 0. 2.29357788e-03 0.
      0. 0. 0. 0. 0. 0. 0. 2.29357788e-03 0. 0. 0. 0. 0. 0. 0. 0. 0. 0.
      0. 0. 0. 9.17431153e-03 0. 0. 0. 0. 4.58715577e-03 0. 0. 0. 0. 0.
      0. 0. 0. 0. 4.58715577e-03 0. 0. 0. 0. 0. 0. 0. 0. 0. 0. 0. 0. 0.
      0. 0. 0. 0. 0. 0. 2.29357788e-03 0. 0. 2.29357788e-03 0.
      2.29357788e-03 0. 0. 2.29357788e-03 0. 0. 0. 0. 0. 0. 0. 0. 0. 0.
      0. 0. 0. 0.</_>
    <_>
      2.29885057e-03 4.59770113e-03 4.59770113e-03 2.29885057e-03
      2.29885057e-03 0. 0. 2.29885057e-03 0. 2.29885057e-03 0. 0.
      9.19540226e-03 2.29885057e-03 0. 0. 0. 2.29885057e-03
      2.29885057e-03 4.59770113e-03 2.29885057e-03 2.29885057e-03 0. 0.
      2.29885057e-03 4.59770113e-03 9.19540226e-03 2.29885057e-03 0.
      2.29885057e-03 0. 2.29885057e-03 2.29885057e-03 0. 2.29885057e-03
      2.29885057e-03 2.29885057e-03 0. 2.29885057e-03 2.29885057e-03
      2.29885057e-03 2.29885057e-03 0. 0. 2.29885057e-03 2.29885057e-03
      9.19540226e-03 0. 0. 2.29885057e-03 2.29885057e-03 4.59770113e-03
      2.29885057e-03 0. 0. 2.29885057e-03 0. 2.29885057e-03
      2.29885057e-03 0. 2.29885057e-03 2.29885057e-03 2.29885057e-03
      2.29885057e-03 0. 2.29885057e-03 0. 0. 0. 2.29885057e-03 0. 0.
      2.29885057e-03 0. 0. 2.29885057e-03 4.59770113e-03 2.29885057e-03
      0. 0. 0. 0. 2.29885057e-03 2.29885057e-03 2.29885057e-03 0.
      2.29885057e-03 2.29885057e-03 0. 2.29885057e-03 6.89655170e-03 0.
      2.29885057e-03 0. 2.29885057e-03 0. 0. 2.29885057e-03 0.
      2.29885057e-03 0. 0. 0. 0. 2.29885057e-03 0. 2.29885057e-03
      2.29885057e-03 4.59770113e-03 2.29885057e-03 2.29885057e-03 0. 0.
      2.29885057e-03 0. 2.29885057e-03 2.29885057e-03 0. 0.
      2.29885057e-03 2.29885057e-03 2.29885057e-03 2.29885057e-03 0. 0.
      2.29885057e-03 2.29885057e-03 2.29885057e-03 2.29885057e-03 0.
      2.29885057e-03 2.29885057e-03 2.29885057e-03 2.29885057e-03
      6.89655170e-03 2.29885057e-03 0. 2.29885057e-03 2.29885057e-03
      2.29885057e-03 2.29885057e-03 2.29885057e-03 0. 2.29885057e-03
      2.29885057e-03 0. 0. 6.89655170e-03 0. 0. 2.29885057e-03 0.
      2.29885057e-03 2.29885057e-03 4.59770113e-03 2.29885057e-03 0.
      2.29885057e-03 0. 2.29885057e-03 2.29885057e-03 0. 0. 0.
      9.19540226e-03 2.29885057e-03 0. 0. 4.59770113e-03 2.29885057e-03
      0. 2.29885057e-03 0. 2.29885057e-03 2.29885057e-03 0.
      2.29885057e-03 2.29885057e-03 0. 0. 2.29885057e-03 2.29885057e-03
      0. 0. 0. 2.29885057e-03 2.29885057e-03 0. 2.29885057e-03 0. 0. 0.
      0. 0. 2.29885057e-03 2.29885057e-03 2.29885057e-03 0. 0. 0. 0. 0.
      0. 0. 0. 2.29885057e-03 0. 0. 2.29885057e-03 0. 2.29885057e-03
      2.29885057e-03 2.29885057e-03 2.29885057e-03 0. 0. 2.29885057e-03
      0. 2.29885057e-03 0. 2.29885057e-03 2.29885057e-03 0. 0.
      2.29885057e-03 2.29885057e-03 0. 2.29885057e-03 2.29885057e-03
      2.29885057e-03 2.29885057e-03 2.29885057e-03 2.29885057e-03
      2.29885057e-03 0. 2.29885057e-03 2.29885057e-03 0. 2.29885057e-03
      0. 0. 2.29885057e-03 0. 0. 0. 0. 2.29885057e-03 2.29885057e-03
      2.29885057e-03 2.29885057e-03 9.19540226e-03 2.29885057e-03 0. 0.
      0. 0. 0. 2.29885057e-03 0. 2.29885057e-03 2.29885057e-03
      2.29885057e-03 2.29885057e-03 0. 2.29885057e-03 2.29885057e-03 0.
      0. 0. 2.29885057e-03 0. 4.59770113e-03 4.59770113e-03
      2.29885057e-03 0. 0. 0. 0. 0. 0. 4.59770113e-03 2.29885057e-03
      4.59770113e-03 2.29885057e-03 0. 2.29885057e-03 0. 2.29885057e-03
      2.29885057e-03 2.29885057e-03 0. 4.59770113e-03 0. 2.29885057e-03
      2.29885057e-03 0. 0. 0. 0. 2.29885057e-03 0. 0. 0. 0. 0.
      2.29885057e-03 2.29885057e-03 0. 2.29885057e-03 0. 2.29885057e-03
      2.29885057e-03 0. 2.29885057e-03 4.59770113e-03 2.29885057e-03
      2.29885057e-03 0. 2.29885057e-03 0. 0. 0. 2.29885057e-03 0. 0. 0.
      0. 0. 0. 0. 0. 4.59770113e-03 0. 0. 0. 2.29885057e-03
      2.29885057e-03 0. 2.29885057e-03 0. 0. 0. 0. 2.29885057e-03 0.
      2.29885057e-03 2.29885057e-03 0. 2.29885057e-03 4.59770113e-03 0.
      2.29885057e-03 0. 0. 0. 0. 2.29885057e-03 2.29885057e-03 0.
      4.59770113e-03 0. 0. 0. 0. 0. 2.29885057e-03 0. 2.29885057e-03
      2.29885057e-03 2.29885057e-03 0. 0. 0. 2.29885057e-03
      2.29885057e-03 2.29885057e-03 0. 0. 0. 0. 0. 2.29885057e-03 0.
      2.29885057e-03 0. 0. 0. 0. 0. 2.29885057e-03 0. 2.29885057e-03 0.
      0. 2.29885057e-03 6.89655170e-03 0. 0. 0. 0. 2.29885057e-03
      2.29885057e-03 0. 2.29885057e-03 0. 0. 4.59770113e-03
      2.29885057e-03 2.29885057e-03 0. 4.59770113e-03 0. 0. 0.
      2.29885057e-03 0. 2.29885057e-03 2.29885057e-03 2.29885057e-03 0.
      0. 0. 0. 0. 2.29885057e-03 0. 0. 0. 2.29885057e-03 0.
      2.29885057e-03 0. 0. 0. 0. 0. 0. 2.29885057e-03 2.29885057e-03 0.
      2.29885057e-03 0. 0. 2.29885057e-03 2.29885057e-03 0. 0. 0. 0. 0.
      0. 2.29885057e-03 2.29885057e-03 2.29885057e-03 2.29885057e-03 0.
      0. 0. 2.29885057e-03 0. 2.29885057e-03 0. 2.29885057e-03 0.
      4.59770113e-03 0. 4.59770113e-03 2.29885057e-03 0. 6.89655170e-03
      2.29885057e-03 0. 0. 2.29885057e-03 0. 2.29885057e-03 0. 0. 0. 0.
      0. 0. 0. 0. 0. 4.59770113e-03 0. 2.29885057e-03 0. 2.29885057e-03
      0. 0. 0. 2.29885057e-03 0. 0. 0. 2.29885057e-03 0. 0. 0. 0. 0.
      2.29885057e-03 0. 0. 2.29885057e-03 0. 0. 0. 4.59770113e-03
      2.29885057e-03 2.29885057e-03 0. 0. 0. 0. 2.29885057e-03 0. 0. 0.
      0. 0. 0. 0. 2.29885057e-03 0. 4.59770113e-03 2.29885057e-03 0.
      2.29885057e-03 0. 0. 0. 2.29885057e-03 0. 0. 2.29885057e-03
      2.29885057e-03 0. 2.29885057e-03 0. 2.29885057e-03 0. 0. 0. 0.
      2.29885057e-03 0. 0. 0. 0. 0. 0. 2.29885057e-03 0. 0. 0. 0. 0. 0.
      2.29885057e-03 0. 0. 0. 2.29885057e-03 2.29885057e-03
      2.29885057e-03 0. 0. 2.29885057e-03 2.29885057e-03 2.29885057e-03
      2.29885057e-03 0. 0. 2.29885057e-03 0. 2.29885057e-03 0. 0. 0. 0.
      2.29885057e-03 2.29885057e-03 0. 2.29885057e-03 0. 0. 0. 0. 0.
      2.29885057e-03 0. 0. 0. 2.29885057e-03 0. 0. 0. 0. 0. 0. 0. 0. 0.
      0. 2.29885057e-03 2.29885057e-03 2.29885057e-03 2.29885057e-03 0.
      2.29885057e-03 0. 0. 0. 0. 0. 0. 0. 0. 2.29885057e-03 0. 0. 0. 0.
      0. 0. 0. 0. 4.59770113e-03 0. 0. 0. 0. 0. 0. 4.59770113e-03
      2.29885057e-03 0. 0. 0. 2.29885057e-03 2.29885057e-03 0.
      4.59770113e-03 0. 2.29885057e-03 0. 0. 0. 0. 0. 4.59770113e-03 0.
      0. 0. 0. 0. 0. 4.59770113e-03 0. 0. 0. 0. 0. 2.29885057e-03
      2.29885057e-03 2.29885057e-03 0. 2.29885057e-03 0. 0. 0. 0. 0. 0.
      2.29885057e-03 0. 2.29885057e-03 0. 0. 2.29885057e-03 0. 0. 0. 0.
      2.29885057e-03 2.29885057e-03 0. 0. 0. 0. 0. 0. 2.29885057e-03 0.
      0. 0. 0. 0. 0. 0. 0. 0. 0. 0. 0. 2.29885057e-03 0. 0. 0. 0. 0. 0.
      0. 0. 0. 0. 0. 2.29885057e-03 0. 0. 2.29885057e-03 0. 0.
      2.29885057e-03 0. 0. 0. 0. 0. 0. 0. 0. 2.29885057e-03 0.
      2.29885057e-03 0. 0. 0. 0. 0. 0. 4.59770113e-03 0. 0. 0. 0. 0.
      2.29885057e-03 0. 0. 0. 0. 2.29885057e-03 0. 0. 0. 0. 0.
      4.59770113e-03 0. 2.29885057e-03 0. 0. 2.29885057e-03 0.
      2.29885057e-03 4.59770113e-03 0. 0. 2.29885057e-03 0. 0. 0.
      2.29885057e-03 0. 0. 0. 0. 2.29885057e-03 2.29885057e-03 0. 0. 0.
      0. 0. 0. 0. 2.29885057e-03 0. 0. 0. 0. 0. 9.19540226e-03 0.
      2.29885057e-03 0. 2.29885057e-03 2.29885057e-03 0. 0.
      2.29885057e-03 0. 0. 0. 0. 4.59770113e-03 0. 0. 0. 0. 0. 0. 0. 0.
      0. 0. 0. 0. 2.29885057e-03 4.59770113e-03 0. 6.89655170e-03 0. 0.
      2.29885057e-03 0. 0. 0. 0. 0. 0. 0. 0. 2.29885057e-03
      2.29885057e-03 0. 0. 0. 0. 0. 0. 0. 0. 4.59770113e-03 0. 0. 0. 0.
      0. 0. 0. 0. 0. 2.29885057e-03 0. 2.29885057e-03 2.29885057e-03 0.
      2.29885057e-03 2.29885057e-03 0. 0. 0. 6.89655170e-03 0.
      2.29885057e-03 0. 0. 0. 2.29885057e-03 0. 0. 0. 0. 0. 0. 0. 0. 0.
      0. 0. 2.29885057e-03 0. 2.29885057e-03 0. 2.29885057e-03
      2.29885057e-03 0. 0. 0. 0. 0. 0. 0. 2.29885057e-03 2.29885057e-03
      0. 0. 0. 0. 0. 0. 2.29885057e-03 0. 0. 0. 2.29885057e-03 0. 0. 0.
      0. 2.29885057e-03 4.59770113e-03 0. 0. 2.29885057e-03 0. 0. 0. 0.
      0. 0. 0. 0. 2.29885057e-03 0. 0. 2.29885057e-03 0. 0. 0. 0. 0. 0.
      0. 0. 0. 0. 2.29885057e-03 0. 0. 0. 0. 4.59770113e-03 0. 0. 0. 0.
      0. 0. 0. 0. 0. 2.29885057e-03 0. 0. 0. 0. 0. 0. 0. 0.
      2.29885057e-03 0. 0. 2.29885057e-03 0. 0. 0. 0. 2.29885057e-03 0.
      0. 0. 0. 0. 0. 0. 2.29885057e-03 2.29885057e-03 0. 4.59770113e-03
      2.29885057e-03 0. 0. 0. 0. 4.59770113e-03 0. 0. 0. 0. 0. 0. 0. 0.</_>
    <_>
      2.06185575e-03 4.12371149e-03 2.06185575e-03 2.06185575e-03
      2.06185575e-03 0. 0. 4.12371149e-03 0. 2.06185575e-03 0. 0.
      1.23711340e-02 0. 0. 0. 0. 2.06185575e-03 2.06185575e-03
      4.12371149e-03 0. 2.06185575e-03 0. 2.06185575e-03 2.06185575e-03
      6.18556701e-03 4.12371149e-03 2.06185575e-03 0. 2.06185575e-03 0.
      2.06185575e-03 2.06185575e-03 0. 2.06185575e-03 8.24742299e-03
      2.06185575e-03 6.18556701e-03 2.06185575e-03 2.06185575e-03
      2.06185575e-03 2.06185575e-03 0. 4.12371149e-03 2.06185575e-03 0.
      1.23711340e-02 0. 0. 2.06185575e-03 2.06185575e-03 4.12371149e-03
      0. 0. 0. 2.06185575e-03 2.06185575e-03 2.06185575e-03
      2.06185575e-03 0. 2.06185575e-03 2.06185575e-03 2.06185575e-03
      2.06185575e-03 0. 2.06185575e-03 2.06185575e-03 0. 2.06185575e-03
      2.06185575e-03 0. 0. 2.06185575e-03 2.06185575e-03 0.
      2.06185575e-03 6.18556701e-03 6.18556701e-03 2.06185575e-03 0. 0.
      0. 2.06185575e-03 2.06185575e-03 2.06185575e-03 0. 2.06185575e-03
      2.06185575e-03 0. 2.06185575e-03 6.18556701e-03 0. 2.06185575e-03
      0. 2.06185575e-03 0. 0. 2.06185575e-03 0. 2.06185575e-03 0. 0. 0.
      2.06185575e-03 2.06185575e-03 0. 2.06185575e-03 2.06185575e-03
      2.06185575e-03 2.06185575e-03 2.06185575e-03 2.06185575e-03 0.
      2.06185575e-03 0. 2.06185575e-03 2.06185575e-03 0. 0.
      2.06185575e-03 2.06185575e-03 2.06185575e-03 2.06185575e-03 0. 0.
      2.06185575e-03 2.06185575e-03 2.06185575e-03 0. 4.12371149e-03
      2.06185575e-03 4.12371149e-03 2.06185575e-03 2.06185575e-03
      4.12371149e-03 2.06185575e-03 0. 2.06185575e-03 2.06185575e-03
      2.06185575e-03 0. 0. 0. 2.06185575e-03 2.06185575e-03 0.
      2.06185575e-03 6.18556701e-03 0. 0. 2.06185575e-03 0. 0.
      2.06185575e-03 4.12371149e-03 2.06185575e-03 0. 2.06185575e-03
      4.12371149e-03 2.06185575e-03 2.06185575e-03 0. 0. 2.06185575e-03
      4.12371149e-03 2.06185575e-03 0. 0. 2.06185575e-03 2.06185575e-03
      0. 0. 0. 2.06185575e-03 2.06185575e-03 0. 2.06185575e-03
      2.06185575e-03 0. 0. 2.06185575e-03 0. 0. 0. 0. 2.06185575e-03
      2.06185575e-03 0. 2.06185575e-03 0. 2.06185575e-03 0.
      4.12371149e-03 0. 2.06185575e-03 0. 2.06185575e-03 0. 0. 0. 0. 0.
      0. 0. 0. 2.06185575e-03 4.12371149e-03 0. 2.06185575e-03
      2.06185575e-03 0. 0. 0. 2.06185575e-03 0. 0. 2.06185575e-03 0.
      2.06185575e-03 0. 2.06185575e-03 2.06185575e-03 0. 0.
      2.06185575e-03 0. 0. 2.06185575e-03 2.06185575e-03 2.06185575e-03
      2.06185575e-03 2.06185575e-03 0. 0. 0. 2.06185575e-03
      2.06185575e-03 0. 2.06185575e-03 0. 0. 2.06185575e-03 0. 0. 0. 0.
      2.06185575e-03 0. 2.06185575e-03 2.06185575e-03 8.24742299e-03
      2.06185575e-03 0. 0. 0. 0. 0. 2.06185575e-03 2.06185575e-03
      2.06185575e-03 2.06185575e-03 2.06185575e-03 2.06185575e-03 0.
      2.06185575e-03 2.06185575e-03 0. 0. 0. 2.06185575e-03 0.
      4.12371149e-03 4.12371149e-03 0. 2.06185575e-03 2.06185575e-03 0.
      0. 0. 0. 4.12371149e-03 2.06185575e-03 4.12371149e-03 0. 0.
      2.06185575e-03 2.06185575e-03 2.06185575e-03 0. 2.06185575e-03 0.
      2.06185575e-03 0. 4.12371149e-03 2.06185575e-03 0. 0. 0. 0.
      2.06185575e-03 0. 0. 2.06185575e-03 0. 0. 2.06185575e-03
      2.06185575e-03 2.06185575e-03 2.06185575e-03 0. 0. 2.06185575e-03
      0. 2.06185575e-03 2.06185575e-03 2.06185575e-03 0. 0.
      2.06185575e-03 2.06185575e-03 0. 0. 2.06185575e-03 0.
      2.06185575e-03 0. 0. 0. 4.12371149e-03 0. 0. 2.06185575e-03 0.
      2.06185575e-03 0. 2.06185575e-03 2.06185575e-03 0. 0. 0. 0. 0. 0.
      2.06185575e-03 2.06185575e-03 2.06185575e-03 2.06185575e-03
      2.06185575e-03 2.06185575e-03 2.06185575e-03 0. 2.06185575e-03 0.
      0. 0. 4.12371149e-03 2.06185575e-03 2.06185575e-03 0.
      6.18556701e-03 0. 0. 0. 0. 0. 2.06185575e-03 0. 2.06185575e-03
      2.06185575e-03 2.06185575e-03 0. 0. 0. 0. 2.06185575e-03
      2.06185575e-03 0. 0. 0. 0. 0. 0. 2.06185575e-03 0. 0. 0. 0. 0. 0.
      2.06185575e-03 0. 2.06185575e-03 0. 0. 2.06185575e-03
      2.06185575e-03 0. 0. 0. 0. 2.06185575e-03 2.06185575e-03 0.
      2.06185575e-03 0. 0. 0. 2.06185575e-03 2.06185575e-03 0.
      4.12371149e-03 0. 0. 0. 2.06185575e-03 0. 2.06185575e-03 0.
      4.12371149e-03 0. 0. 0. 2.06185575e-03 0. 2.06185575e-03 0. 0. 0.
      2.06185575e-03 0. 2.06185575e-03 0. 0. 0. 4.12371149e-03 0.
      4.12371149e-03 2.06185575e-03 2.06185575e-03 0. 2.06185575e-03 0.
      2.06185575e-03 0. 2.06185575e-03 2.06185575e-03 0. 0. 0. 0. 0.
      2.06185575e-03 0. 0. 0. 2.06185575e-03 0. 0. 0. 0. 2.06185575e-03
      0. 2.06185575e-03 2.06185575e-03 4.12371149e-03 0. 0.
      2.06185575e-03 0. 6.18556701e-03 2.06185575e-03 0. 0. 0. 0.
      2.06185575e-03 2.06185575e-03 0. 0. 2.06185575e-03 0. 0. 0.
      2.06185575e-03 0. 0. 0. 0. 0. 2.06185575e-03 0. 0. 0. 0. 0.
      2.06185575e-03 0. 0. 2.06185575e-03 2.06185575e-03 0. 0. 0. 0. 0.
      0. 2.06185575e-03 2.06185575e-03 0. 0. 2.06185575e-03
      4.12371149e-03 2.06185575e-03 0. 0. 0. 0. 2.06185575e-03
      2.06185575e-03 0. 0. 0. 0. 0. 0. 2.06185575e-03 0. 2.06185575e-03
      2.06185575e-03 0. 0. 0. 0. 2.06185575e-03 2.06185575e-03 0. 0.
      2.06185575e-03 2.06185575e-03 0. 0. 0. 2.06185575e-03 0.
      2.06185575e-03 0. 0. 0. 0. 0. 0. 0. 0. 0. 0. 0. 8.24742299e-03 0.
      0. 0. 0. 2.06185575e-03 4.12371149e-03 0. 0. 2.06185575e-03
      2.06185575e-03 0. 2.06185575e-03 0. 2.06185575e-03 2.06185575e-03
      2.06185575e-03 2.06185575e-03 0. 0. 2.06185575e-03 0.
      2.06185575e-03 0. 0. 0. 0. 2.06185575e-03 2.06185575e-03 0.
      8.24742299e-03 0. 0. 0. 0. 0. 0. 0. 0. 0. 2.06185575e-03
      4.12371149e-03 2.06185575e-03 2.06185575e-03 0. 0. 0. 0. 0. 0. 0.
      2.06185575e-03 2.06185575e-03 2.06185575e-03 2.06185575e-03 0.
      2.06185575e-03 0. 0. 2.06185575e-03 0. 0. 2.06185575e-03 0. 0.
